#pragma once

namespace nn_weights {

inline constexpr int INPUT_SIZE = 769;
inline constexpr int HIDDEN_SIZE = 32;

inline constexpr float W1[32][769] = {
    {-0.00369552f, 0.05835974f, 0.02620208f, 0.15222323f, 0.10475820f, 0.03043499f, -0.00058508f, -0.02814069f, -0.02147558f, -0.07414904f, -0.10535312f, 0.06140820f, 0.01680560f, 0.08781705f, 0.07169483f, 0.07091645f, 0.16448285f, 0.06264045f, -0.01186541f, -0.02028187f, -0.29964063f, -0.05837669f, -0.07703565f, 0.07959350f, -0.01905587f, 0.04664391f, 0.03962035f, 0.05414717f, 0.19969921f, 0.05602927f, -0.01557381f, -0.01491401f, -0.01826707f, -0.05673270f, -0.10285445f, 0.02795821f, 0.02029936f, 0.08293669f, 0.02747906f, 0.10640434f, 0.14499187f, 0.05216511f, 0.00207767f, 0.00732666f, -0.03185150f, -0.08966814f, -0.10343397f, -0.03814220f, -0.01208823f, 0.04654147f, 0.04402735f, 0.06776930f, 0.14778899f, 0.06753410f, -0.00595125f, 0.01629833f, -0.01577506f, -0.10926049f, -0.12053453f, -0.04370880f, 0.02258034f, 0.06663866f, 0.06963877f, 0.10014942f, 0.18059306f, 0.07172734f, -0.02501390f, -0.04504792f, -0.02371281f, -0.09073938f, -0.06754023f, -0.12799126f, 0.00643027f, 0.07129666f, 0.05578426f, 0.12629420f, 0.16440801f, 0.03141200f, -0.01899711f, -0.03182929f, -0.04040931f, -0.14063030f, -0.11178444f, -0.09691317f, -0.01873443f, 0.05547492f, 0.08306237f, 0.09443326f, 0.12378027f, -0.12423873f, -0.00506216f, -0.00988188f, -0.03511119f, -0.07835875f, -0.08039932f, 0.01739776f, 0.05269075f, 0.10426901f, 0.06896545f, 0.11135382f, 0.13642836f, 0.03466810f, -0.22119217f, -0.01682156f, -0.04568169f, -0.14750448f, -0.13822566f, 0.07172874f, 0.04127506f, 0.01205619f, 0.04162833f, 0.11527711f, 0.18037726f, -0.02712921f, -0.02707430f, -0.01229985f, 0.02580787f, -0.10801280f, -0.19922002f, 0.03647062f, 0.01589768f, 0.06925464f, 0.07991751f, 0.08109055f, 0.16276282f, 0.06276158f, -0.04199931f, -0.01854335f, -0.05506369f, -0.11684866f, -0.16345480f, 0.02552953f, 0.01258845f, 0.05067119f, 0.02374130f, 0.10023143f, 0.18479571f, 0.04385143f, -0.03637829f, -0.00996602f, -0.00916150f, -0.14062873f, -0.17695963f, -0.00974910f, 0.07186799f, 0.10491283f, 0.02194956f, 0.12196797f, 0.18337992f, 0.04977533f, -0.03353233f, -0.03151954f, -0.02164362f, -0.15092687f, -0.15962797f, -0.05997571f, 0.03779597f, 0.04882014f, 0.07164065f, 0.10601188f, 0.17788798f, 0.03770488f, -0.01378576f, -0.00025046f, -0.09819887f, -0.10979890f, -0.15856427f, -0.06637515f, 0.02467253f, 0.04292384f, 0.07884164f, 0.10096876f, 0.24002998f, 0.04977517f, -0.04834279f, -0.02424283f, -0.02572310f, -0.19915186f, -0.13974136f, -0.09570616f, 0.02928142f, 0.03068453f, 0.06287452f, 0.12658285f, 0.16168296f, 0.02167440f, -0.12700564f, -0.03888456f, -0.02993534f, -0.10067636f, -0.12918709f, 0.03205282f, -0.01454173f, 0.04033034f, 0.09295794f, 0.11741737f, 0.16317558f, 0.07138791f, -0.02353440f, -0.02420754f, -0.00786186f, -0.08223641f, -0.12301140f, -0.01748679f, 0.00381297f, 0.07185052f, 0.08021425f, 0.10590065f, 0.17732863f, 0.06966043f, -0.02194004f, -0.03923617f, -0.03214059f, -0.05080480f, -0.17217124f, 0.00131324f, 0.05063309f, 0.08155918f, 0.04371332f, 0.09008390f, 0.14318940f, 0.03542794f, -0.03930144f, -0.04726265f, 0.01179599f, -0.03711656f, -0.17668034f, 0.00576185f, 0.02779848f, 0.08423501f, 0.04710182f, 0.09904168f, 0.17970803f, 0.04629232f, -0.06405892f, -0.02525298f, -0.05991594f, -0.04906189f, -0.18143557f, -0.00748487f, 0.01588894f, 0.07494909f, 0.05541072f, 0.08584768f, 0.14164142f, 0.05516531f, -0.06010595f, -0.03621626f, -0.00805458f, -0.08308131f, -0.22270611f, -0.02756701f, 0.04303190f, 0.08138205f, 0.02766018f, 0.10472109f, 0.15968531f, 0.04256545f, -0.08265352f, -0.03925590f, -0.01588491f, -0.07360410f, -0.21845241f, 0.00153239f, 0.06017142f, 0.07924859f, 0.04922818f, 0.06772874f, 0.16609658f, 0.02417639f, -0.11165583f, -0.06633182f, -0.07206874f, -0.12072517f, -0.14406155f, -0.01086988f, 0.00386229f, 0.06799731f, 0.06673209f, 0.09142663f, 0.16025110f, 0.01004044f, -0.04618504f, -0.04079524f, -0.08572540f, -0.06477828f, -0.16976164f, 0.04572543f, 0.00564131f, 0.06890671f, 0.04579100f, 0.09571051f, 0.14487690f, 0.02906336f, -0.02718626f, -0.03307117f, -0.06456599f, -0.05610696f, -0.17969021f, 0.01873398f, 0.05190225f, 0.04567836f, 0.03569661f, 0.02772787f, 0.18676622f, 0.03522735f, -0.01547401f, -0.03887028f, -0.00982811f, -0.08092283f, -0.16585167f, 0.01958045f, 0.05199644f, 0.04458912f, 0.07132386f, -0.03006591f, 0.14119098f, 0.03359784f, -0.01033259f, -0.01695414f, -0.03735413f, -0.10720710f, -0.18053384f, -0.00789168f, 0.01374896f, 0.06316965f, 0.06400139f, 0.05294470f, 0.15498029f, 0.03491513f, -0.06434631f, -0.05204249f, -0.00260644f, -0.08410319f, -0.16099545f, -0.01382687f, 0.00100766f, 0.07601351f, 0.07573656f, 0.07954925f, 0.19072786f, 0.02847693f, -0.03826074f, -0.05705728f, -0.02877733f, -0.08401287f, -0.17695184f, -0.00065780f, 0.04763710f, 0.10020267f, 0.06589922f, 0.08299126f, 0.18741348f, 0.01643687f, -0.02311001f, -0.02238029f, -0.05955210f, -0.12348168f, -0.20069252f, -0.01762432f, 0.01408960f, 0.03515757f, 0.05766723f, 0.07971567f, 0.17820932f, 0.04011492f, -0.05617833f, -0.08780613f, -0.07422081f, -0.11064366f, -0.13001235f, -0.00650792f, 0.02059219f, 0.05113798f, 0.07850558f, 0.11460815f, 0.21382560f, 0.03025621f, -0.03523816f, -0.03730681f, -0.00594492f, -0.14674291f, -0.13611792f, 0.06443968f, 0.05795380f, 0.04825563f, 0.07174909f, 0.12863237f, 0.19568454f, -0.07465310f, -0.02331157f, -0.01337060f, -0.00645800f, -0.05963918f, -0.08733773f, 0.00110894f, 0.02345928f, 0.06829418f, 0.05385157f, 0.06853937f, 0.14662230f, -0.00956104f, -0.02875319f, -0.03173774f, -0.07221995f, -0.07808410f, -0.12861192f, -0.00539386f, 0.04733273f, 0.07427808f, 0.00489733f, 0.12773569f, 0.17279300f, -0.00438362f, -0.01452424f, -0.06491593f, -0.01810569f, -0.06522462f, -0.15364662f, -0.00045439f, 0.00654363f, 0.08903075f, 0.05030603f, 0.08166138f, 0.19128668f, -0.02038445f, -0.01170425f, -0.01851219f, -0.05223341f, -0.08147471f, -0.14036562f, 0.04674469f, 0.03700279f, 0.06554824f, 0.04530049f, 0.10788397f, 0.19551162f, -0.01504539f, -0.02726613f, -0.00593807f, -0.04094717f, -0.08466168f, -0.15944186f, 0.01263183f, 0.01116625f, 0.10559277f, 0.06714278f, 0.05802734f, 0.17809209f, 0.01116101f, -0.01793583f, -0.05179549f, -0.04294482f, -0.11893094f, -0.18910508f, 0.05158119f, 0.04228748f, 0.04407878f, 0.08716954f, 0.09785072f, 0.18212642f, -0.00878502f, -0.03532127f, -0.05975420f, -0.00544360f, -0.05074098f, -0.15639769f, -0.05026697f, 0.05205238f, 0.04352877f, 0.04802621f, 0.10532588f, 0.20879765f, -0.05991368f, -0.01677676f, -0.04778790f, -0.10321864f, -0.09691139f, -0.16577339f, 0.04252429f, -0.00016179f, 0.00597644f, 0.05537846f, 0.12334079f, 0.16886872f, -0.01884862f, -0.03417576f, -0.00888418f, -0.06147887f, -0.08870916f, -0.14828342f, -0.05325647f, 0.03047614f, 0.11969720f, 0.07175943f, 0.09736516f, 0.17758551f, 0.00900667f, -0.02894726f, -0.04225298f, -0.03112843f, -0.08034290f, -0.15935282f, 0.00567056f, 0.05661968f, 0.08769444f, 0.04410327f, 0.11165524f, 0.19021523f, 0.06845543f, -0.01010198f, -0.06670912f, -0.03092618f, -0.06008190f, -0.21861191f, 0.02611056f, 0.00973283f, 0.08259957f, 0.04598953f, 0.12073161f, 0.17891599f, 0.00461260f, -0.03931345f, 0.00133692f, -0.02635400f, -0.17838392f, -0.16861910f, 0.03668314f, -0.00538381f, 0.05993270f, 0.09531304f, 0.10684583f, 0.18950820f, 0.00333906f, -0.02758997f, -0.07572088f, -0.08185882f, -0.10461181f, -0.15206091f, 0.05530405f, 0.03497537f, 0.04440440f, 0.08696851f, 0.07374219f, 0.22701572f, 0.05659695f, 0.00338381f, -0.08345672f, -0.01556549f, -0.03379852f, -0.17240852f, 0.05628800f, 0.00740170f, 0.01258218f, 0.07958591f, 0.10799549f, 0.22564232f, -0.01903030f, -0.02640077f, -0.00387588f, -0.08330659f, -0.08880888f, -0.17197040f, 0.02979591f, -0.00239671f, 0.07101876f, 0.11341401f, 0.08484586f, 0.19985630f, 0.05982289f, -0.03043804f, -0.02564838f, -0.03065247f, -0.06644668f, -0.16691759f, 0.01818035f, 0.07557540f, 0.07731998f, 0.05156555f, 0.06915040f, 0.18088052f, -0.05606914f, -0.02176725f, -0.00194314f, -0.04100991f, -0.08128130f, -0.16722474f, -0.14743792f, 0.04967425f, 0.06535035f, 0.06678970f, 0.05906623f, 0.19312318f, 0.03263757f, -0.00697679f, -0.06586988f, -0.06329121f, -0.12891257f, -0.17085081f, 0.02737458f, 0.01423094f, 0.08392695f, 0.05524956f, 0.13329339f, 0.18713522f, 0.03192230f, -0.00407264f, -0.05915324f, -0.09819105f, -0.10757497f, -0.12815449f, 0.04578830f, 0.02562484f, 0.06781822f, 0.05017818f, 0.09016538f, 0.13084781f, -0.01095807f, 0.00750837f, -0.06440470f, -0.04638765f, -0.07948606f, -0.15071537f, 0.06053045f, -0.03223118f, 0.07423313f, 0.03484653f, 0.04743826f, 0.16050190f, -0.00018261f, -0.03998022f, -0.04241205f, -0.04886355f, -0.07966793f, -0.13260904f, 0.03514319f, 0.03080295f, 0.05286480f, 0.06487088f, 0.13493088f, 0.21652463f, 0.00942665f, -0.01960034f, -0.04927102f, -0.07658962f, -0.07366142f, -0.15351315f, 0.04413209f, 0.03207861f, 0.05095087f, 0.05940223f, 0.11144544f, 0.17826562f, -0.12313441f, -0.02188763f, -0.04608164f, -0.04152614f, -0.08855891f, -0.17629825f, 0.07503322f, 0.04551183f, 0.07828139f, 0.08722904f, 0.09452122f, 0.17559086f, -0.00013901f, -0.03928334f, -0.03061740f, -0.05810677f, -0.07897989f, -0.12641193f, 0.04024201f, 0.00290646f, 0.03840111f, 0.04647812f, 0.09709917f, 0.21852042f, -0.03606614f, 0.02929754f, -0.01706088f, -0.08358622f, -0.09077868f, -0.18265434f, -0.01376385f, 0.00665274f, 0.06122690f, 0.03271336f, 0.10010627f, 0.20350264f, -0.00308990f, -0.01203185f, 0.00033891f, -0.08274431f, -0.09192415f, -0.15850148f, -0.00456207f, 0.00700610f, 0.06040668f, 0.04907668f, 0.15703623f, 0.17253567f, 0.08114703f, 0.02215718f, -0.03320367f, -0.08258487f, -0.08552168f, -0.16193488f, 0.03223459f, 0.02646749f, 0.05280905f, 0.09300110f, 0.12591785f, 0.11023529f, -0.01452154f, -0.01966721f, -0.08567052f, -0.02491794f, -0.10813530f, -0.17775646f, 0.03725137f, -0.00587277f, 0.04658165f, 0.01313237f, 0.13334784f, 0.19861510f, -0.02740590f, -0.02898678f, -0.07120768f, -0.07251427f, -0.11719474f, -0.12388303f, 0.02492842f, 0.00005351f, 0.03016491f, 0.03060644f, 0.08269090f, 0.19045456f, -0.16805904f, -0.00692960f, -0.04376339f, -0.04432509f, -0.07686974f, -0.14507811f, 0.03473520f, -0.01674763f, 0.06254310f, 0.05270577f, 0.12762664f, 0.14716342f, -0.03597632f, -0.03509139f, -0.00362953f, -0.03924118f, -0.09988885f, -0.17832500f, 0.06391543f, -0.03063442f, 0.07256101f, 0.03139510f, 0.14237699f, 0.14186102f, 0.05204210f, 0.03011709f, -0.01202992f, -0.03931745f, -0.09076007f, -0.20402513f, 0.03318805f, 0.04434085f},
    {0.01794623f, 0.08982714f, 0.02915136f, 0.07779726f, 0.17524073f, 0.07804164f, -0.01285607f, -0.04906479f, -0.12535739f, -0.07626227f, -0.23437655f, -0.09133706f, -0.00323489f, -0.00621307f, 0.11243483f, 0.18180171f, 0.08173607f, 0.06910151f, 0.02821431f, -0.04146014f, -0.02844496f, -0.10873463f, -0.15963089f, -0.08527064f, 0.01131039f, 0.00294396f, 0.10173710f, 0.19751178f, 0.23635128f, 0.01080289f, -0.03368879f, -0.01135044f, -0.01935320f, -0.07616808f, -0.26666021f, -0.07007191f, 0.01659885f, 0.03832839f, 0.11473053f, 0.05853476f, 0.15579973f, -0.01540768f, 0.00254230f, -0.03091946f, 0.02089350f, -0.15394406f, -0.40256631f, -0.23092338f, 0.00512765f, 0.05062668f, -0.01807162f, 0.06892075f, 0.09040260f, -0.04132353f, 0.02601257f, -0.11427996f, -0.03133061f, -0.15966012f, -0.28954506f, -0.04028638f, -0.00501703f, 0.00399829f, 0.05953239f, 0.00817780f, 0.13678738f, -0.00239062f, -0.00785268f, -0.07823581f, -0.11674865f, -0.12415781f, -0.31762886f, 0.02590228f, -0.03283534f, 0.03577774f, 0.01095540f, 0.10459302f, 0.11440036f, -0.01324534f, -0.00816030f, -0.14437532f, -0.03752437f, -0.12017270f, -0.19868909f, -0.07461622f, 0.02977847f, 0.10107727f, 0.02414269f, 0.10116431f, 0.17881806f, 0.01952579f, -0.02871830f, -0.13118687f, -0.05532771f, -0.07639991f, -0.19747868f, -0.05096345f, 0.16285665f, 0.08400058f, -0.00552526f, 0.11989743f, 0.08420259f, 0.07118502f, -0.05363425f, -0.04200257f, -0.08309569f, -0.10116246f, -0.24950966f, 0.03788732f, -0.03718123f, 0.07647259f, -0.05720781f, 0.19754368f, -0.00676015f, 0.06084630f, 0.01018776f, -0.03374220f, -0.03393915f, -0.13271005f, -0.07238364f, -0.01553247f, 0.01610461f, -0.05702410f, 0.01725696f, 0.18272898f, 0.04475835f, 0.05637499f, 0.01884987f, 0.00749269f, -0.08405452f, -0.07136855f, -0.19553220f, 0.02868912f, -0.01592512f, -0.00460478f, 0.02598858f, 0.19021462f, 0.21695155f, 0.06873416f, -0.12784085f, -0.11051419f, -0.25325990f, -0.14300455f, -0.42197478f, 0.08625119f, 0.01074222f, -0.02172600f, 0.01838132f, 0.05147955f, 0.18183063f, 0.03881911f, -0.05317286f, -0.05802745f, -0.01104591f, -0.19114774f, -0.42109132f, -0.01778525f, -0.01867002f, -0.02841207f, 0.06976946f, 0.03563428f, 0.18257196f, 0.13649695f, -0.02345555f, -0.02327082f, -0.02335491f, -0.11623318f, -0.10045519f, -0.03269348f, -0.06817862f, 0.12530963f, 0.00585043f, 0.20889820f, 0.20106380f, 0.02698096f, 0.02771591f, -0.13868332f, -0.03595749f, -0.14118476f, -0.13645244f, -0.10147552f, -0.02065190f, 0.03594004f, 0.02541565f, 0.08177973f, 0.22945672f, 0.02864582f, 0.00306934f, -0.12790510f, 0.00247455f, -0.04227139f, -0.15231945f, -0.00177148f, 0.02781561f, -0.11560581f, -0.02796238f, 0.12933458f, 0.16118270f, 0.06638654f, 0.00293461f, -0.00860573f, -0.17862806f, -0.07567466f, -0.07026199f, -0.05365703f, -0.00841022f, -0.02167688f, 0.07361852f, 0.08759817f, 0.08346396f, 0.00794548f, 0.00715938f, -0.06443305f, -0.05529917f, -0.09335118f, -0.24722736f, -0.03039602f, 0.09026318f, -0.00594315f, -0.04105385f, 0.01649690f, 0.30691549f, 0.07158036f, -0.03303048f, -0.08472875f, -0.08406944f, 0.00113595f, -0.22830112f, 0.01356843f, 0.00730182f, 0.04013839f, 0.06463638f, 0.06271189f, 0.15158263f, 0.00044945f, -0.13776690f, 0.02970912f, -0.03621849f, -0.10514674f, -0.26144350f, -0.05426688f, 0.05114112f, 0.00013420f, 0.02907312f, 0.07320002f, 0.15792848f, 0.15084533f, 0.01205228f, -0.09665712f, -0.11926247f, -0.08465504f, -0.24214639f, -0.05738946f, 0.03008414f, 0.04841404f, 0.06048129f, -0.01416528f, 0.14969024f, 0.01672676f, -0.06322467f, 0.01556741f, -0.11099667f, -0.11231888f, -0.29443690f, -0.01500191f, -0.01869166f, 0.07205455f, -0.02658639f, 0.10463376f, 0.12487749f, 0.03246472f, -0.09259451f, 0.00426479f, -0.04085114f, -0.06772266f, -0.16911665f, -0.13401835f, 0.03158076f, -0.00187240f, -0.01411204f, 0.01629196f, 0.06813344f, 0.08413792f, -0.05119783f, 0.02308529f, -0.06333558f, -0.03736848f, -0.42404771f, 0.05572218f, 0.04244085f, 0.02735125f, 0.10480038f, 0.06481792f, 0.04696179f, 0.05028466f, -0.01063273f, -0.01976754f, -0.09888728f, -0.17820735f, -0.23787816f, -0.00818949f, -0.00546230f, -0.02827155f, -0.00897347f, 0.02515874f, -0.02004427f, 0.08198306f, -0.02107020f, 0.00198243f, 0.00016351f, -0.07454083f, -0.35243717f, 0.05794017f, -0.04191358f, 0.04803887f, 0.00297577f, 0.11541636f, 0.02426901f, 0.07273442f, -0.09855621f, -0.11612932f, -0.05679927f, -0.08368557f, -0.36532530f, 0.02072285f, 0.08045159f, 0.03190478f, 0.02042266f, 0.06303607f, 0.03542609f, 0.18041418f, -0.01358189f, 0.00022574f, -0.05073023f, -0.04424456f, -0.29193285f, 0.02082095f, 0.03822381f, -0.02681339f, 0.09309965f, 0.00190709f, 0.16539624f, 0.04865858f, -0.02317882f, -0.05229875f, 0.01206255f, -0.05233305f, -0.21243089f, -0.05310104f, 0.05132001f, -0.03896012f, 0.03363828f, -0.10995126f, 0.29419738f, 0.06529742f, -0.02621756f, -0.10587777f, -0.09109026f, 0.01061411f, -0.25833726f, -0.15893318f, 0.06650484f, 0.01347613f, 0.03546555f, 0.08610778f, 0.33246055f, 0.11923025f, 0.05691389f, -0.04245678f, -0.01076848f, -0.05374666f, -0.31990331f, 0.11503062f, 0.07854912f, 0.09812941f, 0.13909829f, 0.10184103f, 0.17423034f, -0.03909210f, 0.01524748f, -0.10728013f, -0.07332872f, -0.04871621f, -0.35123932f, 0.00808124f, 0.03568475f, 0.09181776f, -0.00749352f, 0.08959083f, 0.21170770f, -0.02564540f, -0.01393567f, 0.01159671f, -0.11458556f, -0.13732876f, -0.19646850f, 0.04346667f, 0.10274174f, 0.00059665f, 0.02372498f, 0.09781238f, 0.06016759f, -0.17276119f, 0.06145513f, -0.03027287f, -0.15112074f, -0.23592196f, -0.22372125f, 0.03725688f, -0.01635562f, 0.07291562f, 0.09771280f, 0.08382517f, 0.02891461f, 0.08669619f, -0.00580539f, -0.08679608f, 0.01285007f, -0.03407336f, -0.24258471f, 0.08762560f, -0.11549866f, -0.02507604f, -0.01574809f, 0.11334182f, 0.04917974f, -0.00197848f, 0.05453066f, -0.23188320f, -0.03872067f, -0.18569063f, -0.27657732f, 0.02983036f, 0.05542337f, 0.12047276f, 0.01530267f, 0.16327551f, 0.18485624f, 0.10074020f, 0.01939729f, -0.03764150f, -0.00278917f, -0.01297363f, -0.35675678f, -0.02942380f, 0.02292162f, 0.05483247f, 0.11658366f, 0.10668035f, 0.28218928f, -0.07889093f, -0.00266651f, -0.11811245f, -0.01866057f, -0.10976572f, -0.18995535f, -0.07172625f, 0.03706978f, 0.01094888f, 0.09150570f, 0.06852525f, 0.20619036f, 0.01655021f, 0.01849637f, 0.02204211f, -0.02129481f, -0.21520640f, -0.28869477f, -0.01604679f, 0.08669891f, 0.09543511f, 0.02338973f, 0.08954458f, 0.16217670f, 0.01402490f, -0.02833726f, -0.03339719f, -0.05619565f, -0.08445710f, -0.16458905f, 0.10950459f, 0.02690881f, -0.00205677f, 0.06089923f, 0.10591056f, 0.04952282f, 0.02926318f, 0.03288420f, -0.02676733f, -0.04688391f, -0.02905316f, -0.11911783f, -0.00817111f, 0.07872988f, 0.07460186f, 0.01657789f, 0.18266912f, 0.09342235f, 0.01322780f, 0.02321124f, -0.05284656f, -0.04374027f, -0.09769691f, -0.16446254f, -0.01015992f, 0.01080617f, 0.08580513f, 0.13008776f, 0.14448261f, 0.15806951f, -0.04850304f, 0.03507930f, 0.02880855f, -0.02445381f, -0.07393990f, -0.06812877f, -0.03031320f, -0.00661918f, 0.09726931f, 0.00977810f, 0.07561241f, 0.10313174f, 0.05867326f, 0.02794145f, -0.15671454f, 0.04640213f, -0.02540710f, -0.28090674f, -0.02459792f, -0.01694991f, 0.10231945f, 0.15687746f, 0.08098040f, 0.09131570f, 0.09187362f, 0.08560956f, -0.12280851f, -0.06771051f, -0.08690116f, -0.23407036f, -0.05955070f, 0.00374362f, 0.03738648f, 0.16730134f, 0.04758907f, 0.13601446f, 0.05741570f, -0.00453848f, -0.10916612f, 0.08645291f, -0.03305127f, -0.16625026f, -0.03891274f, 0.10971309f, 0.07682224f, 0.08430683f, 0.09189644f, 0.21267332f, -0.06415817f, 0.04801426f, 0.00976797f, -0.15101382f, -0.03571305f, -0.17443977f, 0.03533343f, 0.11013313f, -0.06379307f, -0.01579975f, 0.13326967f, 0.24179371f, -0.06007732f, -0.02455273f, -0.03788950f, -0.09589097f, -0.03483603f, -0.11852951f, 0.06807925f, 0.08255074f, 0.16084826f, 0.05526348f, 0.13479488f, 0.15403987f, -0.06973671f, -0.02544991f, 0.02730259f, -0.07398167f, -0.18314555f, -0.16147120f, -0.03136333f, 0.13132241f, 0.12267405f, 0.07894677f, 0.03622774f, 0.26032525f, -0.03210675f, -0.03974422f, -0.00550247f, -0.06153145f, -0.09682379f, -0.10563960f, 0.08530850f, 0.07970878f, 0.01806002f, 0.09672296f, 0.14547400f, 0.30211678f, -0.09473221f, -0.01608780f, -0.02203741f, 0.00853041f, -0.17550521f, -0.14926903f, -0.06390090f, 0.06961922f, 0.12794973f, 0.04015689f, 0.12141117f, 0.15035048f, -0.00251765f, -0.06927183f, -0.05090265f, -0.01042841f, -0.15938716f, -0.29294774f, -0.01321397f, 0.07695694f, 0.02558887f, -0.01177158f, 0.10216422f, 0.18844627f, 0.13600457f, 0.05145955f, -0.02998225f, -0.03856630f, -0.05195935f, -0.24372151f, -0.06544122f, 0.02606115f, 0.01501938f, -0.03663506f, -0.00518443f, 0.20507726f, 0.02784307f, -0.09850586f, -0.02084916f, -0.20672619f, -0.06842960f, -0.10563925f, 0.11244140f, -0.01280867f, 0.00362768f, 0.00304949f, 0.02103403f, 0.27103412f, -0.07178544f, -0.04902931f, -0.03591926f, -0.01241044f, -0.14195235f, -0.25610134f, 0.01589425f, 0.06686018f, 0.09500698f, 0.12584865f, 0.04236402f, 0.11992280f, -0.04580316f, -0.10373628f, -0.00577575f, -0.12050270f, -0.15495044f, -0.10480934f, 0.07647632f, -0.02045590f, 0.08918689f, 0.04941629f, -0.02910650f, 0.18226881f, -0.01449007f, 0.01725695f, -0.12561002f, -0.05951069f, -0.09876076f, -0.16111986f, 0.07998019f, 0.03092413f, 0.03102925f, 0.13542658f, 0.11072352f, 0.10315348f, -0.06201521f, -0.00377771f, -0.04656781f, -0.12372265f, -0.14110403f, -0.24303299f, 0.05176759f, -0.03044803f, 0.01454378f, 0.15361787f, 0.01960977f, 0.17240135f, 0.05805565f, -0.02129649f, 0.01333556f, -0.06796728f, -0.10867596f, -0.23471905f, 0.05259196f, -0.02527296f, 0.03302269f, 0.06487885f, 0.07069376f, 0.15708318f, -0.00017209f, -0.02156290f, 0.07647978f, -0.02450919f, 0.02065375f, -0.25827685f, 0.04940568f, 0.02240274f, -0.03131717f, 0.03886751f, 0.03147230f, 0.18368037f, 0.00997672f, -0.03555516f, 0.03538712f, -0.03113773f, -0.02451319f, -0.22534584f, 0.04241261f, 0.00077709f, 0.06753432f, -0.01638550f, 0.04927431f, 0.13367565f, -0.13641565f, -0.00554458f, -0.09904396f, -0.05662533f, -0.14170027f, -0.10746445f, 0.10391311f, 0.02071513f, 0.09209007f, 0.00584373f, 0.13343334f, 0.15234944f, -0.05275352f, -0.03250683f, -0.01631488f, -0.05847493f, -0.12612510f, -0.16300397f, 0.12198234f, -0.02075378f, 0.05870992f, 0.13853978f, 0.09961571f, 0.12500305f, 0.05116061f, 0.02282613f, -0.00410448f, -0.08767688f, -0.21723673f, -0.13454784f, 0.15045515f, -0.01546004f},
    {0.02947262f, 0.05434386f, 0.08863036f, 0.07926428f, 0.10673277f, 0.10438854f, -0.00794653f, -0.01131578f, -0.01204168f, -0.05442430f, -0.14652087f, -0.00079996f, 0.02285817f, 0.07368280f, 0.02564787f, 0.09553663f, 0.18864249f, 0.10244767f, -0.02285925f, -0.00785743f, 0.01819757f, -0.06147248f, -0.08297944f, -0.01942156f, -0.00020169f, 0.03803702f, 0.09636314f, 0.02368581f, 0.17697430f, 0.07882652f, 0.03584757f, -0.00182937f, 0.00085607f, -0.06290692f, -0.22880600f, -0.08272976f, -0.03569159f, 0.07018097f, 0.03347494f, 0.08474895f, 0.14019735f, 0.07246070f, -0.01250339f, -0.00077220f, -0.03326231f, -0.04423398f, -0.14446862f, -0.00079550f, -0.00021392f, 0.04850360f, 0.04620534f, 0.10352437f, 0.13612892f, 0.02791447f, -0.01512001f, 0.00591279f, -0.03502434f, -0.05996870f, -0.19901545f, 0.00809317f, -0.00262384f, 0.03337013f, 0.09636264f, 0.07006984f, 0.20017321f, 0.06094202f, 0.01649185f, 0.01506854f, -0.03847319f, -0.08820365f, -0.08983905f, -0.01569799f, -0.01561326f, 0.03094934f, 0.04152449f, 0.13036916f, 0.14186540f, 0.01444267f, 0.00099817f, -0.01518641f, -0.00215538f, -0.06724136f, -0.17229845f, 0.00575298f, -0.01516910f, 0.05431359f, 0.04239336f, 0.10490438f, 0.10569828f, -0.11913759f, 0.02733368f, -0.01529979f, -0.01986379f, -0.07726796f, -0.15393147f, 0.01340059f, -0.01223839f, 0.05235372f, 0.08324151f, 0.06709660f, 0.15952550f, 0.11126534f, -0.07982063f, 0.00811981f, -0.02062993f, -0.15955912f, -0.15203987f, 0.05263090f, 0.00632369f, 0.07793923f, 0.04689193f, 0.07264818f, 0.20623271f, 0.09448005f, -0.04273601f, -0.02261285f, -0.01616951f, -0.14923657f, -0.14374082f, -0.00009507f, 0.04107594f, 0.07891702f, 0.06915367f, 0.08564778f, 0.16522588f, 0.04629558f, -0.02047548f, -0.02324292f, -0.01002048f, -0.14077894f, -0.16637544f, -0.00028342f, 0.02414821f, 0.06962523f, 0.01276510f, 0.10315270f, 0.17625625f, 0.05815452f, -0.05734921f, 0.03653921f, -0.01335342f, -0.16752371f, -0.20101619f, 0.03705055f, 0.00737567f, 0.03999131f, 0.04138090f, 0.10476435f, 0.12850022f, 0.03915364f, -0.05131143f, -0.01488385f, -0.01757429f, -0.12375414f, -0.17508018f, -0.02580670f, 0.04429470f, 0.01867194f, 0.06163710f, 0.00637336f, 0.19790569f, 0.05346126f, -0.01025155f, -0.00874006f, -0.02905012f, -0.10493713f, -0.19222723f, -0.02332422f, 0.05553837f, 0.03355949f, 0.05726941f, 0.09296614f, 0.21876033f, 0.01915516f, -0.13626684f, -0.02235075f, -0.02267017f, -0.18010187f, -0.14100142f, -0.01261812f, 0.01104164f, 0.00536977f, 0.04777295f, 0.06736629f, 0.18052228f, 0.05740780f, -0.16409567f, -0.02511834f, -0.02152465f, -0.12636608f, -0.13908172f, 0.02363005f, -0.00044598f, 0.05825689f, 0.04261173f, 0.08792166f, 0.18255807f, 0.06072083f, -0.01397433f, -0.03348976f, -0.02807382f, -0.04133708f, -0.14559226f, -0.02878167f, 0.01820200f, 0.06954614f, 0.03255771f, 0.09983429f, 0.15985613f, 0.11396202f, -0.05555117f, -0.01544535f, -0.04408329f, -0.05167231f, -0.15571751f, -0.00301930f, 0.01370947f, 0.05446237f, 0.06711415f, 0.10953396f, 0.14636259f, 0.05731186f, -0.04949426f, -0.00600593f, -0.01640255f, -0.04057113f, -0.13210170f, -0.00812171f, 0.06319415f, 0.08337606f, 0.02436919f, 0.10586515f, 0.20342527f, 0.01915306f, -0.05337713f, -0.02007526f, -0.03540208f, -0.06551741f, -0.15228294f, 0.04816143f, 0.02887791f, 0.06241761f, 0.05122508f, 0.08208898f, 0.10222984f, 0.05288635f, -0.10451849f, -0.01019883f, 0.00531393f, -0.22755259f, -0.18968435f, 0.00691680f, 0.02434168f, 0.03524501f, 0.07525667f, 0.04721293f, 0.11840209f, -0.01689695f, -0.06713594f, -0.01650768f, -0.00281429f, -0.16699813f, -0.20041807f, 0.01662155f, 0.05306860f, 0.08218524f, 0.04933276f, 0.10992946f, 0.17028257f, 0.02572045f, -0.08569518f, -0.03446747f, -0.02400066f, -0.09756000f, -0.12215438f, -0.04676973f, 0.04183532f, 0.06089070f, 0.03386962f, 0.08177534f, 0.15611215f, 0.00549252f, -0.04317926f, -0.11553101f, -0.04133450f, -0.09131206f, -0.22870597f, 0.05464036f, 0.00068344f, -0.07174909f, 0.01167977f, 0.12337945f, 0.16158767f, 0.05214061f, -0.00921393f, -0.02969679f, -0.04748289f, -0.06326313f, -0.13514955f, -0.01220728f, 0.05416422f, 0.05995753f, 0.04247956f, -0.11571134f, 0.15138587f, 0.04735775f, -0.00925716f, -0.03905009f, -0.02173854f, -0.08212862f, -0.15448405f, 0.05973429f, 0.01273686f, 0.06558595f, 0.02223592f, -0.04255905f, 0.18339576f, -0.01130416f, -0.01863083f, -0.05579419f, -0.03456698f, -0.08904664f, -0.14256765f, 0.03175890f, 0.03918259f, 0.08619906f, 0.04492765f, 0.03304986f, 0.16892381f, 0.01713997f, -0.06305976f, -0.05224089f, -0.06225152f, -0.08292113f, -0.18589847f, -0.06718332f, 0.00238934f, 0.07125057f, 0.05730768f, 0.10866905f, 0.19837712f, 0.01440788f, -0.05082222f, -0.00848459f, -0.03708500f, -0.08457146f, -0.14501417f, 0.03448887f, 0.05351897f, 0.00933128f, 0.06513014f, 0.06123641f, 0.16567613f, -0.01982228f, 0.00454468f, -0.03104845f, -0.00762545f, -0.15374231f, -0.20202516f, -0.01038084f, 0.01625595f, 0.02204383f, 0.03206172f, 0.11587493f, 0.18446803f, 0.02577900f, -0.03018587f, -0.09625229f, -0.04502631f, -0.08097237f, -0.13502508f, 0.01025382f, 0.02805668f, 0.08698660f, 0.02206745f, 0.11685267f, 0.16416502f, -0.01347162f, -0.02536909f, -0.06994280f, -0.02032404f, -0.14823270f, -0.14190827f, 0.01469385f, 0.05181058f, 0.05398664f, 0.07073582f, 0.04007190f, 0.13875940f, -0.07927550f, -0.01102467f, -0.05541186f, -0.03032519f, -0.05023351f, -0.12292401f, -0.00549235f, 0.02252218f, 0.05455919f, 0.05091245f, 0.05063384f, 0.14233492f, 0.02496605f, -0.02998240f, -0.00398114f, -0.04180920f, -0.04318180f, -0.19139999f, -0.01588156f, -0.00773804f, 0.06931254f, 0.01563711f, 0.10906014f, 0.21295354f, 0.02569415f, -0.00514178f, -0.04541039f, -0.06220003f, -0.09976565f, -0.15966444f, 0.00024125f, 0.03411695f, 0.06559632f, 0.04277731f, 0.09223359f, 0.20060535f, 0.01705138f, -0.03997567f, -0.04007554f, -0.03056203f, -0.07027848f, -0.14486231f, 0.05622744f, 0.02497742f, 0.03555905f, 0.07897381f, 0.11388224f, 0.18299346f, -0.02491618f, -0.06634440f, -0.01876035f, -0.02954727f, -0.08461763f, -0.16163564f, 0.01369549f, -0.01247130f, 0.10299054f, 0.05344929f, 0.03673718f, 0.21497770f, 0.03282293f, 0.00573982f, -0.05682024f, -0.02806196f, -0.10412546f, -0.15479293f, 0.05485064f, 0.02552230f, 0.09079392f, 0.04296929f, 0.09124254f, 0.21066870f, -0.02179493f, -0.02902605f, -0.04836192f, -0.01822620f, -0.10527283f, -0.15065439f, 0.02368503f, -0.03435036f, 0.09178675f, 0.05228533f, 0.06544718f, 0.20685518f, -0.03420369f, -0.02746938f, -0.03369007f, -0.08273393f, -0.07412455f, -0.13299258f, 0.05903335f, -0.00510010f, 0.06055478f, -0.01092547f, 0.11089801f, 0.16837764f, -0.02818063f, -0.01693945f, -0.02528030f, -0.03251576f, -0.08071928f, -0.10437853f, 0.04153201f, 0.01515081f, 0.11668641f, 0.04894545f, 0.11896818f, 0.18758500f, 0.04375291f, -0.00637040f, -0.02433507f, -0.02115884f, -0.08469824f, -0.14669053f, -0.00245251f, 0.04893391f, 0.08977501f, 0.07599901f, 0.09196805f, 0.15102342f, -0.08591208f, -0.03288443f, -0.07130417f, -0.08266076f, -0.08539182f, -0.19814992f, 0.04235781f, 0.01197803f, 0.04620082f, 0.04047831f, 0.11374596f, 0.16944963f, 0.03210393f, -0.02913124f, 0.03977834f, -0.07304615f, -0.09492639f, -0.13691217f, 0.06358673f, 0.03362462f, 0.07067735f, 0.04564242f, 0.05800393f, 0.18531464f, 0.01557029f, -0.02327190f, -0.06433080f, -0.04448699f, -0.11701412f, -0.13353248f, 0.05840684f, 0.01368683f, 0.07212682f, 0.08161352f, 0.09541854f, 0.19840999f, 0.08691119f, 0.01548715f, -0.07289535f, -0.06295146f, -0.04733130f, -0.13935564f, 0.04763271f, 0.04940464f, 0.07963068f, 0.09717260f, 0.10100940f, 0.22458084f, -0.02348144f, -0.03730280f, -0.04755257f, -0.02682268f, -0.12644342f, -0.16697766f, 0.05572508f, 0.01951978f, 0.06769469f, 0.12787661f, 0.07010893f, 0.16531950f, 0.03927615f, -0.03251060f, -0.01082628f, -0.01573245f, -0.13304994f, -0.14914469f, 0.05177436f, 0.04133026f, 0.05768596f, 0.09146723f, 0.07321732f, 0.16125974f, -0.06947002f, -0.00365197f, -0.00104485f, -0.08314846f, -0.07086864f, -0.16076048f, 0.01278585f, 0.05147845f, 0.01688056f, 0.02137463f, 0.05497031f, 0.18833330f, 0.07113659f, 0.00568399f, -0.07086493f, -0.06380196f, -0.08182219f, -0.14321622f, -0.02107467f, 0.01326933f, 0.08204191f, 0.05948816f, 0.14618129f, 0.17761195f, 0.03746527f, -0.00524710f, -0.03331155f, -0.10382070f, -0.09507281f, -0.11598100f, 0.07248256f, 0.03756507f, 0.09355568f, 0.07318012f, 0.12361539f, 0.16426745f, 0.00464844f, -0.03452577f, -0.02727460f, -0.05479887f, -0.07313736f, -0.12107980f, 0.08681521f, 0.07378337f, 0.05146096f, 0.05317437f, 0.09728552f, 0.15412211f, 0.03065104f, -0.00706223f, -0.03151604f, -0.04824842f, -0.10684335f, -0.16173451f, 0.04464711f, 0.06924185f, 0.02906708f, 0.06125965f, 0.11724689f, 0.23342516f, 0.01056291f, 0.00307001f, -0.01799001f, -0.05022305f, -0.07035673f, -0.14821593f, 0.06756377f, 0.02238214f, 0.09243702f, 0.03830059f, 0.08868317f, 0.16831651f, -0.08002781f, -0.01991087f, -0.03969497f, -0.03884781f, -0.10434716f, -0.13621241f, 0.08895624f, 0.02406771f, 0.05121012f, 0.04563054f, 0.06372955f, 0.20595293f, -0.01630337f, -0.02238497f, -0.01910576f, -0.06226780f, -0.06261997f, -0.14966314f, 0.06042147f, 0.01913932f, -0.01297953f, 0.01044603f, 0.09494653f, 0.18893720f, -0.02690605f, 0.02053904f, -0.05345565f, -0.07010506f, -0.07329644f, -0.19299836f, -0.03145060f, -0.01757899f, 0.00629879f, 0.03985416f, 0.07980863f, 0.22655661f, -0.06107431f, -0.01265604f, -0.03347610f, -0.16824177f, -0.08849014f, -0.15100676f, 0.00272294f, 0.02853790f, 0.01888927f, 0.06158987f, 0.18716127f, 0.18864244f, 0.04514880f, 0.00923196f, -0.06195639f, -0.03076076f, -0.07126990f, -0.19413540f, 0.01443402f, 0.03487436f, 0.04917856f, 0.06273710f, 0.12250984f, 0.06275167f, 0.02181035f, -0.03557851f, -0.05535353f, -0.02705584f, -0.11471012f, -0.15813193f, 0.06657682f, 0.00838468f, 0.03162063f, 0.01135908f, 0.14021197f, 0.19798642f, -0.01592671f, -0.00949214f, -0.06953588f, -0.02708331f, -0.12501366f, -0.16219832f, 0.04971181f, -0.02642807f, 0.07712210f, 0.02909539f, 0.09617369f, 0.18137473f, -0.16579929f, -0.02230656f, -0.03401463f, -0.02616730f, -0.07634555f, -0.14140430f, 0.04065469f, 0.02777032f, 0.09111862f, 0.04166141f, 0.08018115f, 0.16291772f, -0.00373038f, 0.02235291f, -0.00870934f, -0.05453530f, -0.08773112f, -0.17510733f, 0.07290386f, 0.00872867f, 0.03181193f, 0.03039787f, 0.13635737f, 0.17504904f, -0.00442713f, 0.02427449f, 0.01802225f, -0.07935237f, -0.07071201f, -0.19641790f, 0.05638788f, 0.04340749f},
    {0.03507385f, -0.01630032f, -0.04798995f, -0.05299800f, -0.22399865f, 0.04770897f, -0.03147202f, 0.01778271f, 0.07182772f, 0.12995386f, 0.18633802f, 0.06521061f, 0.00833772f, -0.00763040f, -0.02891765f, -0.04447624f, -0.13065150f, 0.03318677f, 0.02660891f, 0.04249798f, 0.02677418f, 0.08528194f, 0.16591483f, 0.05554540f, 0.01145306f, -0.00893584f, -0.05162117f, -0.03963226f, -0.10696226f, 0.02135847f, -0.03282325f, 0.05821422f, 0.07023463f, 0.12746951f, 0.16785027f, -0.01241309f, -0.01600927f, -0.00831698f, -0.03746303f, -0.04737802f, -0.12074953f, 0.05882526f, 0.02580635f, 0.06010142f, 0.06764539f, 0.13645972f, 0.19802783f, 0.05283235f, -0.01766833f, -0.05094107f, -0.00309228f, -0.06505556f, -0.15373844f, 0.01793272f, -0.01288836f, 0.07822604f, 0.07636859f, 0.16778943f, 0.18262532f, 0.06998657f, -0.01662034f, -0.04331144f, -0.03955289f, -0.07199033f, -0.17689088f, 0.02133990f, -0.02945746f, 0.06765733f, 0.07598704f, 0.12235347f, 0.16025479f, 0.03944231f, -0.02284702f, 0.00433652f, -0.05454406f, -0.04021896f, -0.14928645f, 0.03525507f, 0.02295532f, 0.05522300f, 0.07280927f, 0.12485605f, 0.19741520f, 0.08766923f, -0.02611808f, -0.07616063f, -0.00657610f, -0.07245626f, -0.17048429f, 0.00265015f, -0.02235097f, 0.03949722f, 0.05699737f, 0.14787936f, 0.17576800f, 0.05688295f, -0.04497861f, -0.05636639f, -0.02646371f, -0.05482731f, -0.16309343f, 0.09578768f, 0.07191316f, 0.05289166f, 0.07175036f, 0.12619127f, 0.20772351f, 0.02730623f, -0.04782015f, 0.00585575f, -0.01566569f, -0.08360483f, -0.12415627f, 0.10259847f, 0.11830273f, 0.06523390f, 0.06627800f, 0.13993210f, 0.21901228f, 0.00017801f, -0.02700445f, -0.04599697f, -0.05623774f, -0.07516737f, -0.13075684f, 0.05441378f, 0.08104743f, 0.03780034f, 0.06197877f, 0.13102253f, 0.16153185f, 0.00068833f, -0.03693408f, -0.01786722f, -0.00290260f, -0.07796608f, -0.13359928f, 0.08080095f, 0.12786920f, 0.07531397f, 0.06571885f, 0.15649436f, 0.25466263f, 0.05088897f, -0.00721257f, -0.03334712f, -0.01308608f, -0.07942162f, -0.15427276f, 0.06133383f, 0.07435692f, 0.08976384f, 0.06323836f, 0.13480252f, 0.20681031f, 0.10593859f, -0.05255487f, -0.03041977f, -0.00170276f, -0.04351131f, -0.16009302f, 0.04033348f, 0.06810366f, 0.07839750f, 0.05614877f, 0.15470326f, 0.22887427f, 0.02594699f, -0.00663015f, -0.03590459f, -0.01165511f, -0.06611938f, -0.16791688f, 0.06146787f, 0.10389028f, 0.09751403f, 0.09408720f, 0.13823457f, 0.21019278f, 0.05049847f, -0.01374598f, -0.01750711f, -0.07445259f, -0.04375906f, -0.18302178f, 0.02842717f, 0.06069271f, 0.01261189f, 0.05393342f, 0.15103480f, 0.13300011f, 0.06357619f, 0.00880047f, -0.03962021f, -0.04584677f, -0.08588354f, -0.16035467f, 0.08559193f, 0.12327375f, 0.05025571f, 0.03972317f, 0.13562411f, 0.13259241f, 0.05781752f, -0.00643829f, -0.02541011f, -0.04580032f, -0.05980307f, -0.14388762f, 0.06469102f, 0.09897468f, 0.04580791f, 0.10303079f, 0.10382695f, 0.14642452f, 0.07960469f, -0.00789499f, -0.06588513f, -0.00051488f, -0.08892953f, -0.11867799f, 0.02961044f, 0.09608121f, 0.07524791f, 0.03453362f, 0.09975574f, 0.19048455f, -0.00637396f, 0.00936517f, -0.02099770f, -0.05457859f, -0.08274994f, -0.16574499f, 0.07529342f, 0.06046763f, 0.06436760f, 0.06397864f, 0.07602973f, 0.17200302f, 0.03589765f, -0.02981385f, -0.04496739f, -0.05559494f, -0.04181353f, -0.15148039f, 0.07868578f, 0.06616031f, 0.06880748f, 0.05787809f, 0.11537874f, 0.17227495f, 0.05874234f, 0.01676255f, -0.03014854f, -0.04757159f, -0.09245130f, -0.15252754f, 0.05820665f, 0.06571196f, 0.07004066f, 0.07149433f, 0.12530379f, 0.18883675f, 0.07789189f, -0.00472831f, -0.05984676f, -0.01931561f, -0.03657444f, -0.15099275f, 0.03122875f, 0.11136472f, 0.06426328f, 0.02272576f, 0.13290232f, 0.11649251f, 0.07409454f, 0.01946868f, -0.02109347f, -0.01771912f, -0.05635998f, -0.15215793f, 0.07757486f, 0.15811837f, 0.04558757f, 0.07045831f, 0.11315664f, 0.16081382f, 0.00815443f, 0.01933290f, -0.03569206f, -0.06485077f, -0.11339384f, -0.10595691f, 0.06617839f, 0.07516852f, 0.03262736f, 0.05964533f, 0.13304640f, 0.16017428f, 0.06214439f, -0.02224568f, -0.03601827f, -0.03240754f, -0.11731311f, -0.16278313f, 0.02772917f, 0.09342504f, 0.07261834f, 0.07507489f, 0.09126341f, 0.15008920f, 0.05989750f, -0.00328202f, -0.00152145f, -0.00009946f, -0.08172921f, -0.13603215f, 0.05116603f, 0.07875635f, 0.03515692f, 0.06967122f, 0.08025835f, 0.19887084f, 0.09084380f, -0.01235293f, -0.01790575f, -0.02269781f, -0.08412259f, -0.15397063f, 0.04699381f, 0.07380445f, 0.06788628f, 0.06136188f, 0.12750824f, 0.16897586f, 0.08532400f, 0.00305995f, -0.05841041f, -0.04156948f, -0.10555877f, -0.14270484f, 0.07036970f, 0.03213365f, 0.07822235f, 0.05066441f, 0.13622780f, 0.17483500f, 0.07338922f, -0.00848591f, -0.03103959f, -0.07068959f, -0.08225046f, -0.18301938f, 0.02186305f, 0.06501296f, 0.02303026f, 0.07133715f, 0.15091956f, 0.15452276f, 0.10545783f, 0.06227356f, 0.00943891f, -0.03422252f, -0.06176405f, -0.16827053f, 0.01797979f, 0.08795881f, 0.08226481f, 0.09595078f, 0.11214098f, 0.13962972f, 0.12480303f, 0.06739325f, -0.04088072f, -0.05190158f, -0.06936962f, -0.17581640f, 0.06222504f, 0.09346300f, 0.04333795f, 0.02294793f, 0.13896254f, 0.19184476f, 0.00410923f, 0.00676126f, -0.00308560f, -0.01960795f, -0.03788005f, -0.16618367f, 0.05669195f, 0.05878793f, 0.07555433f, 0.06723412f, 0.10319623f, 0.10882711f, 0.03965221f, 0.00578602f, -0.01393509f, -0.04706661f, -0.02624275f, -0.14201064f, 0.01297328f, 0.07608985f, 0.07118576f, 0.00446207f, 0.11827201f, 0.18174523f, 0.02336476f, -0.02268303f, 0.00108129f, -0.04274624f, -0.08598671f, -0.20384009f, 0.08985662f, 0.06083462f, 0.09113930f, 0.03430134f, 0.09630774f, 0.12800075f, 0.07656685f, 0.02570467f, -0.05365900f, -0.07131225f, -0.06468309f, -0.14409333f, 0.05194195f, 0.06777931f, 0.07820507f, 0.10105642f, 0.13743204f, 0.14922500f, 0.06044288f, 0.00397435f, -0.05997093f, -0.07131588f, -0.07685088f, -0.16800505f, 0.02021946f, 0.06092064f, 0.04530857f, 0.07384286f, 0.12074332f, 0.14412801f, 0.05363059f, 0.00247356f, -0.06899393f, -0.01669731f, -0.02668019f, -0.16959041f, 0.07742120f, 0.07384558f, 0.09243532f, 0.09347685f, 0.10733972f, 0.15899660f, 0.01977789f, 0.03050032f, -0.01302637f, -0.06970021f, -0.05623367f, -0.15656853f, 0.00808146f, 0.08499830f, 0.04895027f, 0.06847160f, 0.08092079f, 0.20022061f, 0.07078055f, 0.01424681f, -0.08381679f, -0.06658040f, -0.05838734f, -0.21122743f, 0.07355753f, 0.10391702f, 0.06719032f, 0.08469135f, 0.16823122f, 0.20081025f, -0.00467075f, 0.01689004f, 0.00967813f, 0.00005609f, -0.06705046f, -0.21164553f, 0.02341292f, 0.08443069f, 0.08643048f, 0.08311275f, 0.14155157f, 0.18152712f, 0.03464761f, -0.04399615f, -0.05186579f, -0.04377341f, -0.08918405f, -0.14931315f, 0.02396504f, 0.03156754f, 0.03525146f, 0.02378522f, 0.13670982f, 0.13877909f, 0.05941230f, 0.01790748f, -0.00983274f, -0.03221926f, -0.02957636f, -0.17497653f, 0.00607071f, 0.03154220f, 0.07617648f, 0.10871832f, 0.08011758f, 0.22099635f, 0.06221727f, 0.03516185f, -0.07905278f, -0.03923927f, -0.06783546f, -0.14243491f, 0.02041227f, 0.02850569f, 0.01656339f, 0.06653906f, 0.11933651f, 0.21365476f, 0.04721700f, 0.01376469f, -0.02641825f, -0.07583810f, -0.08431320f, -0.19066295f, 0.03976154f, 0.00859676f, 0.06107895f, 0.11620899f, 0.14834833f, 0.17120306f, 0.02137510f, -0.01447648f, -0.08642668f, -0.04679456f, -0.04711644f, -0.17865218f, -0.01741974f, 0.08425182f, 0.09172209f, 0.07795364f, 0.09884507f, 0.21697801f, 0.04045719f, 0.00631181f, -0.06214260f, -0.07101650f, -0.08299398f, -0.15143570f, 0.04854617f, 0.08583549f, 0.03297347f, 0.06165325f, 0.15287776f, 0.18789186f, 0.09530102f, 0.05919622f, -0.08402186f, -0.09726857f, -0.06069572f, -0.18320744f, 0.04958676f, 0.05066086f, 0.05604163f, 0.09388837f, 0.11898006f, 0.22147186f, 0.09203693f, -0.01875660f, -0.07003099f, -0.03479053f, -0.08849861f, -0.16019562f, 0.04512834f, 0.01903709f, 0.00683292f, 0.02752541f, 0.12632073f, 0.13386913f, -0.00433192f, -0.08430708f, -0.01053504f, -0.05486117f, -0.11524057f, -0.14523654f, -0.01055243f, 0.01605058f, 0.07572977f, 0.04988263f, 0.09330630f, 0.16873202f, 0.04324546f, -0.05425495f, -0.04939924f, -0.06336989f, -0.05403435f, -0.17554963f, -0.04172715f, 0.04161107f, 0.06642818f, 0.03866804f, 0.10976084f, 0.16505922f, 0.01136315f, 0.00492886f, -0.08209343f, -0.01042351f, -0.07329327f, -0.16299772f, 0.04530720f, 0.04488068f, 0.06234937f, 0.03466846f, 0.07347398f, 0.14963959f, 0.00240377f, -0.06190392f, -0.05465496f, -0.05048653f, -0.10316516f, -0.11622157f, -0.03141417f, 0.03743439f, 0.05151799f, 0.05665574f, 0.11485680f, 0.16543902f, 0.02367547f, -0.02367899f, -0.00128529f, 0.00438591f, -0.12236008f, -0.22880064f, 0.05645962f, 0.03191671f, 0.07951455f, 0.04323561f, 0.12947764f, 0.16805463f, 0.02459138f, 0.02424826f, -0.00938420f, -0.06755186f, -0.10909089f, -0.23987933f, -0.13257509f, 0.06250949f, 0.06277499f, 0.07835127f, 0.09664016f, 0.15568872f, 0.00751206f, 0.00431857f, -0.06094621f, -0.03095064f, -0.05446896f, -0.16572151f, 0.02477628f, 0.08635264f, 0.06626280f, 0.03494787f, 0.09503481f, 0.23641446f, 0.02784463f, -0.02971099f, 0.00752285f, -0.05383603f, -0.10543167f, -0.21179326f, 0.05721793f, 0.02408103f, 0.05334153f, 0.09260196f, 0.14165798f, 0.21558972f, 0.01455570f, 0.03053921f, -0.00181656f, -0.04158172f, -0.07703078f, -0.25675756f, 0.07658986f, -0.02756233f, 0.06894044f, 0.09587865f, 0.12336536f, 0.17118001f, 0.04130260f, 0.01847127f, -0.05615249f, -0.06376090f, -0.07513756f, -0.15144631f, 0.02456241f, 0.02129561f, 0.06441972f, 0.06016680f, 0.10055064f, 0.14939466f, -0.01659934f, -0.03321809f, -0.03373767f, -0.04446171f, -0.05897478f, -0.05799234f, 0.00084542f, 0.02238016f, 0.09505520f, 0.06441326f, 0.13585226f, 0.20378102f, 0.04123282f, 0.03408544f, 0.00150449f, -0.01516533f, -0.09461694f, -0.21568511f, 0.00587897f, 0.02198938f, 0.07287845f, 0.07531465f, 0.10219019f, 0.16809803f, 0.02142683f, 0.00272936f, -0.08407149f, -0.07594280f, -0.10245003f, -0.26102901f, 0.09674789f, 0.01814703f, 0.04479735f, 0.08519263f, 0.09279203f, 0.18061557f, 0.06016981f, -0.00802582f, -0.07527082f, -0.00385301f, -0.06890364f, -0.15290135f, 0.02418215f, 0.01865340f, 0.05183040f, 0.02260159f, 0.11131299f, 0.16025540f, 0.01938002f, 0.01837200f, -0.03249359f, -0.03895591f, -0.08183777f, -0.21202733f, 0.00826775f, 0.01624697f, 0.03563838f, 0.01697459f, 0.09582897f, 0.17479664f, 0.05969605f, 0.02847884f},
    {-0.02616504f, -0.00305694f, -0.01425171f, -0.08922333f, -0.08116490f, 0.03621327f, -0.02550176f, 0.02083716f, 0.02277057f, 0.11645313f, 0.16957110f, 0.03344074f, 0.02315803f, -0.03840014f, -0.02096288f, -0.06729317f, -0.14310178f, 0.08507001f, 0.00201115f, 0.04561329f, 0.01988844f, 0.09644633f, 0.15367721f, 0.02401940f, 0.01941614f, -0.03840388f, -0.05287547f, -0.07015757f, -0.12055764f, 0.03384989f, -0.02948756f, 0.08359952f, 0.06070589f, 0.10591389f, 0.22716948f, 0.02290798f, -0.02895924f, -0.01756653f, -0.04203391f, -0.05324809f, -0.13386446f, 0.04022651f, -0.02480560f, 0.09348626f, 0.08856101f, 0.13071737f, 0.19616002f, 0.04399160f, 0.02389698f, -0.02904181f, -0.01473499f, -0.04295707f, -0.12039399f, 0.03827384f, -0.03266131f, 0.05359571f, 0.05236981f, 0.14144970f, 0.18491183f, 0.04595255f, -0.02700309f, -0.03894836f, -0.03641629f, -0.05182715f, -0.17821234f, 0.04422561f, 0.01621006f, 0.08709365f, 0.06415758f, 0.16759731f, 0.19300666f, 0.05608801f, -0.00218568f, -0.05170136f, -0.04396949f, -0.04952815f, -0.10692097f, 0.03209320f, -0.01964864f, 0.04430034f, 0.04353493f, 0.14616297f, 0.16847031f, 0.06809285f, 0.01762046f, -0.03065170f, -0.00820346f, -0.09438211f, -0.17479245f, 0.01712205f, -0.01549181f, 0.03670439f, 0.05293753f, 0.15381561f, 0.18835965f, 0.04820061f, -0.02284750f, -0.05346867f, -0.07195541f, -0.06694926f, -0.18120502f, 0.08794444f, 0.04499280f, 0.09097763f, 0.09214694f, 0.09444837f, 0.20623563f, 0.02173234f, 0.00454500f, -0.02305970f, -0.02111352f, -0.06100076f, -0.20376439f, 0.10352451f, 0.08755203f, 0.03672817f, 0.02415908f, 0.12564857f, 0.16847162f, -0.00707091f, -0.04550505f, -0.02325697f, -0.03172701f, -0.05471908f, -0.17968847f, 0.08494139f, 0.11055983f, 0.07240345f, 0.04001007f, 0.14119932f, 0.17515257f, 0.01773412f, -0.05052621f, -0.04637413f, -0.04142853f, -0.08221514f, -0.16368906f, 0.07655857f, 0.12077370f, 0.06138432f, 0.04257628f, 0.16009602f, 0.25084841f, 0.12183742f, -0.07280454f, -0.03787446f, -0.04355096f, -0.08466414f, -0.16185744f, 0.05348238f, 0.06326521f, 0.02977014f, 0.05226503f, 0.13797534f, 0.25946459f, 0.08499613f, -0.02354011f, -0.00333913f, -0.05375602f, -0.06278158f, -0.17365092f, 0.02266821f, 0.11345293f, 0.07881178f, 0.07455634f, 0.13468894f, 0.23975098f, 0.07799402f, -0.04926198f, -0.05578342f, -0.01043174f, -0.08195484f, -0.17184956f, 0.05568462f, 0.12125894f, 0.08386901f, 0.04213227f, 0.16887510f, 0.21999054f, 0.07422205f, -0.02284049f, -0.04002392f, -0.04285863f, -0.04248837f, -0.19022091f, 0.05325677f, 0.09521864f, 0.00311902f, 0.09048203f, 0.14399970f, 0.16582772f, 0.05346658f, 0.02881316f, -0.04913721f, -0.02331882f, -0.08358493f, -0.27800414f, 0.07747444f, 0.07430062f, 0.05330712f, 0.07449505f, 0.09529433f, 0.12188104f, 0.02818951f, -0.00755682f, -0.03325006f, -0.02481220f, -0.06716582f, -0.15863630f, 0.06378420f, 0.07183316f, 0.06040403f, 0.07029202f, 0.12346691f, 0.13056298f, 0.04294069f, -0.02271063f, -0.03657692f, -0.04495102f, -0.09713951f, -0.13474990f, 0.06632511f, 0.04972809f, 0.02787218f, 0.05816362f, 0.11938795f, 0.18187653f, 0.03757796f, -0.02830322f, -0.01864972f, -0.01648205f, -0.07867522f, -0.16947530f, 0.04109899f, 0.04826755f, 0.03433474f, 0.07553220f, 0.06594015f, 0.20880511f, 0.03539998f, -0.01020340f, -0.04714966f, -0.05270460f, -0.05750002f, -0.10826676f, 0.06491057f, 0.10601494f, 0.08230618f, 0.05702947f, 0.10030264f, 0.16599332f, 0.04171492f, 0.02660231f, -0.01928795f, -0.05042734f, -0.12853253f, -0.13085234f, 0.03449407f, 0.07968237f, 0.08742204f, 0.03906028f, 0.12902054f, 0.16124332f, 0.08516853f, 0.00291088f, -0.06381767f, -0.03225673f, -0.02604758f, -0.19964929f, 0.07276470f, 0.13050474f, 0.04996521f, 0.04251496f, 0.14069103f, 0.12974188f, 0.09970357f, 0.02188576f, -0.01093417f, -0.03378617f, -0.02418273f, -0.15964010f, 0.08513344f, 0.14244470f, 0.07033268f, 0.06308550f, 0.10931715f, 0.21128553f, 0.01546347f, 0.02769638f, -0.02230911f, -0.01549829f, -0.11499121f, -0.14252976f, 0.01489471f, 0.09204657f, 0.05812418f, 0.07793494f, 0.10945747f, 0.15794723f, 0.06622943f, -0.04311939f, -0.00515570f, -0.00557937f, -0.10765502f, -0.19189578f, 0.01639699f, 0.03791093f, 0.07344909f, 0.02782594f, 0.13291577f, 0.15663503f, 0.05155305f, 0.01747367f, -0.00960707f, -0.01084176f, -0.09929986f, -0.18692322f, 0.00335647f, 0.05429738f, 0.04430299f, 0.05659969f, 0.11681415f, 0.15496731f, 0.04675293f, -0.02518221f, -0.01183653f, -0.01834678f, -0.09659117f, -0.13848679f, 0.06572084f, 0.02899946f, 0.05637968f, 0.02309908f, 0.07998705f, 0.20036127f, 0.09519209f, -0.00750791f, -0.03692923f, -0.05672512f, -0.11552989f, -0.19344687f, 0.06002788f, 0.05425337f, 0.09565002f, 0.06922399f, 0.11668665f, 0.17438254f, 0.08204146f, 0.00178711f, -0.06229286f, -0.01964192f, -0.04868506f, -0.15558787f, 0.08374134f, 0.06892947f, 0.08300170f, 0.04726144f, 0.12807535f, 0.19581319f, 0.12632930f, 0.01736380f, -0.00416013f, -0.05289863f, -0.04758055f, -0.12656772f, 0.06321684f, 0.12245315f, 0.08120714f, 0.11517543f, 0.12214239f, 0.20782432f, 0.09770899f, 0.04561885f, -0.04865601f, -0.04863888f, -0.06342257f, -0.15287670f, 0.07865457f, 0.11570111f, 0.09348131f, 0.02628391f, 0.10452592f, 0.18620713f, 0.02744115f, 0.00966146f, -0.02166561f, -0.01057691f, -0.08870000f, -0.18580547f, 0.09314709f, 0.09199220f, 0.01080725f, 0.05353347f, 0.11700128f, 0.14755805f, 0.05609848f, -0.01793984f, -0.02204628f, -0.00969376f, -0.09476043f, -0.15057585f, 0.00462021f, 0.04526329f, -0.00302576f, 0.04724428f, 0.11473361f, 0.14322758f, 0.01651064f, -0.00956541f, -0.02130547f, -0.02946547f, -0.10351973f, -0.22700089f, 0.08693355f, 0.02609332f, 0.08265756f, 0.06331018f, 0.14411587f, 0.18636748f, 0.06255127f, 0.01587070f, -0.05907560f, -0.02672773f, -0.05793897f, -0.15591170f, 0.04478149f, 0.03469840f, 0.08057100f, 0.05575185f, 0.13628221f, 0.20181167f, 0.05095374f, -0.02027735f, -0.08424457f, -0.03558754f, -0.09675785f, -0.14298059f, 0.02757959f, 0.01647202f, 0.02281493f, 0.05843133f, 0.13081403f, 0.15623574f, 0.08038890f, 0.00727866f, -0.07572965f, -0.01538240f, -0.02916648f, -0.19701290f, 0.07497104f, 0.08046247f, 0.07501031f, 0.04952099f, 0.11394505f, 0.16405423f, -0.00816358f, -0.00221797f, -0.04745918f, -0.04382632f, -0.06819456f, -0.17059788f, 0.05332994f, 0.13056380f, 0.04904221f, 0.05885476f, 0.09930713f, 0.21525191f, 0.09752283f, 0.03247610f, -0.03846241f, -0.07177070f, -0.08455158f, -0.18572487f, 0.10002825f, 0.08548073f, 0.00884116f, 0.07887269f, 0.15870979f, 0.19230299f, -0.00326444f, 0.03624992f, -0.00460119f, -0.02784881f, -0.04220331f, -0.20887665f, 0.04991456f, 0.08773032f, 0.06150830f, 0.06088333f, 0.12204974f, 0.14745878f, 0.04239412f, -0.04146370f, -0.04471930f, -0.01487274f, -0.08775993f, -0.16477431f, 0.00207185f, 0.04933024f, 0.08160398f, 0.07977197f, 0.13387488f, 0.14505139f, 0.02747471f, -0.02901551f, -0.05463457f, -0.07108808f, -0.09162712f, -0.18502431f, -0.05325262f, 0.06842423f, 0.06402146f, 0.10402298f, 0.10446219f, 0.17898662f, 0.04120563f, 0.02101664f, -0.04696560f, -0.01890747f, -0.10102661f, -0.14127798f, 0.01108014f, 0.05743727f, 0.00922286f, 0.07733362f, 0.11394149f, 0.21969481f, 0.07380521f, -0.01553007f, -0.05500865f, -0.05829220f, -0.09584890f, -0.16248570f, 0.06193529f, 0.06924413f, 0.08239289f, 0.06287873f, 0.10520300f, 0.16831011f, 0.03216347f, -0.00175579f, -0.04870490f, -0.00962986f, -0.06507594f, -0.17871882f, -0.01259070f, 0.07921022f, 0.05948055f, 0.04075625f, 0.10274767f, 0.20502247f, 0.03896634f, -0.03236550f, -0.03250134f, -0.06128254f, -0.06519342f, -0.17893995f, 0.04904065f, 0.08085976f, 0.02720814f, 0.11964042f, 0.13521656f, 0.15442862f, 0.08932104f, 0.04675268f, -0.08453169f, -0.10676167f, -0.04816917f, -0.19506936f, 0.04913216f, 0.09583165f, 0.02575457f, 0.05039845f, 0.10356005f, 0.16884170f, 0.04050170f, -0.02459453f, -0.05071040f, -0.06147217f, -0.05468221f, -0.13833758f, 0.07463529f, 0.03111817f, 0.05945106f, 0.05480962f, 0.11152788f, 0.19101290f, 0.00352259f, -0.04086084f, -0.05847498f, -0.04187646f, -0.08532575f, -0.13963142f, -0.03452815f, 0.02898980f, 0.10868156f, 0.08074884f, 0.06272101f, 0.16104288f, 0.03596830f, -0.02891716f, -0.05487241f, -0.07991724f, -0.04657691f, -0.16391894f, -0.06679924f, 0.01631710f, 0.02475996f, 0.08717303f, 0.11495606f, 0.15690564f, 0.00715282f, -0.02501313f, -0.08686791f, -0.03686734f, -0.07752988f, -0.15242636f, 0.03638570f, -0.00124093f, 0.10486715f, 0.04015724f, 0.13209917f, 0.13414487f, 0.02579599f, -0.07976345f, -0.05774556f, -0.04807961f, -0.05420776f, -0.11036886f, -0.05303145f, 0.03461868f, 0.06630257f, 0.08126912f, 0.14024295f, 0.18838300f, 0.04695310f, -0.01316638f, -0.01897137f, -0.02971592f, -0.11841144f, -0.20951511f, 0.01354014f, 0.05141567f, 0.05890040f, 0.08451293f, 0.07367664f, 0.16666535f, 0.03657576f, -0.00873819f, -0.01613618f, -0.06685639f, -0.06940259f, -0.19037619f, -0.15849681f, 0.07678410f, 0.05786299f, 0.06678826f, 0.12618965f, 0.20382051f, 0.02639307f, -0.01644790f, -0.07447755f, -0.04035368f, -0.06636979f, -0.19037494f, 0.02283029f, 0.07077546f, 0.06900997f, 0.06283495f, 0.11954566f, 0.25468883f, 0.05602411f, 0.00455592f, -0.00126123f, -0.01944453f, -0.06665473f, -0.20316203f, 0.08785427f, -0.02763490f, 0.08480421f, 0.10162811f, 0.11548083f, 0.20804541f, 0.03022125f, -0.03295987f, 0.00172743f, -0.04421988f, -0.02937937f, -0.28464028f, 0.03422482f, 0.01335717f, 0.07074916f, 0.04667623f, 0.12255874f, 0.17325516f, 0.07441482f, 0.03582446f, -0.01434719f, -0.02561164f, -0.08949645f, -0.16641605f, -0.03817260f, -0.01762063f, 0.06683186f, 0.08799836f, 0.11683620f, 0.16445327f, 0.01204913f, -0.02421161f, -0.01986327f, -0.02281409f, -0.06932534f, -0.10137477f, 0.03160979f, -0.03117840f, 0.14507082f, 0.06949903f, 0.16920510f, 0.14671879f, 0.01102727f, -0.00445180f, 0.01493820f, -0.05408001f, -0.11461112f, -0.22565652f, -0.00450417f, -0.01430795f, 0.07887605f, 0.11955678f, 0.12191145f, 0.16023347f, -0.03411799f, 0.03466316f, -0.08240425f, -0.09106147f, -0.05683440f, -0.27776486f, 0.13215412f, 0.02867289f, 0.09277293f, 0.07584472f, 0.11210050f, 0.15918480f, 0.03121260f, 0.00342732f, -0.07424039f, -0.01809622f, -0.10953595f, -0.12101390f, 0.02026210f, 0.02147220f, 0.05580285f, 0.02586839f, 0.15124413f, 0.18116936f, 0.00350973f, -0.02314343f, -0.00554008f, -0.02375787f, -0.13543782f, -0.15902585f, 0.05526173f, 0.01089601f, 0.00000679f, 0.02971485f, 0.11007863f, 0.17250462f, 0.04252147f, 0.01325682f},
    {-0.02094385f, 0.10284065f, 0.20745088f, 0.14286108f, 0.14949962f, -0.33320865f, -0.01805615f, -0.20479372f, -0.09824680f, -0.25611573f, -0.14812525f, -0.18124478f, 0.02679161f, 0.09020268f, 0.13902526f, 0.10261855f, 0.11805508f, -0.31038362f, 0.01363266f, -0.11027137f, -0.06575738f, -0.20657240f, -0.15631850f, -0.19273329f, 0.02648654f, 0.07567021f, 0.10185351f, 0.18044266f, 0.06617001f, -0.12146718f, -0.00924439f, -0.07977614f, -0.13138255f, -0.26257834f, -0.02844865f, -0.07832181f, 0.02305153f, 0.11027241f, 0.14332986f, 0.08232836f, 0.11222966f, -0.03352538f, -0.01044335f, -0.05551890f, 0.01381605f, -0.07798399f, 0.07244062f, -0.10281909f, 0.01037982f, 0.10793679f, 0.18537834f, 0.14496511f, 0.05537588f, 0.04652478f, -0.02843103f, -0.07882372f, -0.17049798f, -0.20392691f, -0.18791288f, -0.07471076f, 0.00159925f, 0.19135143f, 0.07105283f, 0.13399333f, 0.04765859f, -0.09773512f, 0.00002354f, -0.05462859f, -0.06619892f, -0.23875001f, -0.01677536f, -0.02183826f, 0.01311329f, 0.13124773f, 0.11398040f, 0.16725287f, 0.25373766f, 0.00260479f, -0.00837149f, -0.25487164f, -0.39875421f, -0.29455075f, -0.28689969f, -0.06637315f, 0.02234199f, 0.13808419f, 0.14990968f, 0.08156101f, 0.15903489f, 0.13667636f, 0.02680244f, -0.06056977f, -0.11568896f, -0.05285588f, -0.16200654f, -0.19024445f, -0.02289901f, -0.01328291f, 0.04336258f, 0.13192269f, 0.03752629f, -0.26467505f, 0.02484900f, 0.02451731f, 0.00128595f, -0.09432186f, -0.07486015f, -0.08482224f, 0.03378413f, 0.03255020f, 0.16457620f, 0.13072258f, 0.17495236f, -0.00624399f, -0.01498443f, -0.15677361f, -0.14299524f, -0.05046000f, -0.13373287f, -0.06474636f, 0.06043344f, 0.08894444f, 0.18580931f, 0.09504154f, 0.06561965f, -0.02772527f, 0.10178202f, -0.17325190f, 0.02040088f, -0.20919995f, -0.09002852f, -0.00697309f, 0.07503999f, 0.10276471f, 0.16616718f, 0.14906260f, 0.07892327f, 0.09768923f, 0.11832792f, -0.18024585f, -0.09135061f, -0.04958392f, 0.11898790f, -0.07899743f, -0.10684990f, 0.16000159f, 0.14438695f, 0.17970203f, 0.15040855f, -0.03793617f, 0.07706036f, -0.09152994f, 0.01387814f, -0.00855329f, 0.16885911f, 0.14437564f, 0.06943496f, 0.16160652f, 0.17502987f, 0.17759000f, -0.07866544f, 0.03585207f, 0.00424785f, -0.03119079f, -0.19136296f, 0.03071446f, -0.11616439f, -0.12831092f, 0.06156810f, 0.08019752f, 0.12906504f, 0.00972454f, 0.06256185f, 0.03802250f, 0.18977016f, -0.05431055f, -0.08475974f, 0.03733515f, -0.40480632f, 0.06260888f, 0.02240613f, 0.08067169f, 0.20837699f, 0.05335958f, 0.07247436f, 0.09044316f, 0.15603971f, -0.17361507f, -0.34195277f, -0.17856428f, -0.14656508f, -0.00350219f, 0.00722059f, 0.04299815f, 0.10754941f, 0.07673733f, 0.12719227f, 0.10939685f, -0.17026049f, -0.08099411f, -0.20347171f, -0.25427178f, -0.02293829f, 0.12351541f, 0.02361057f, 0.08123641f, 0.14468871f, 0.03011435f, 0.13225631f, -0.06383178f, -0.02076794f, -0.18854032f, 0.01421790f, -0.12193891f, -0.20154032f, 0.05413445f, 0.06534850f, 0.13439471f, 0.21131665f, 0.19315159f, 0.13802510f, -0.00966975f, -0.19371048f, 0.02961105f, -0.16041100f, -0.29856989f, -0.21688181f, -0.11996883f, 0.03960461f, 0.02862031f, 0.15870756f, -0.01703918f, 0.12832598f, 0.09635287f, 0.09267909f, -0.05290874f, -0.07289273f, -0.29630384f, -0.02582977f, -0.25823545f, 0.01761581f, 0.13456160f, 0.00993478f, 0.18835360f, 0.21898985f, 0.02176924f, -0.12024415f, -0.10553347f, -0.13818565f, -0.36464539f, -0.16308050f, -0.12379294f, 0.01564955f, 0.13717465f, 0.14420427f, 0.09639108f, 0.19161212f, -0.08329889f, 0.15332608f, -0.20092450f, -0.11242846f, -0.10674199f, -0.25482887f, -0.02856889f, 0.02771973f, 0.17221652f, 0.19731534f, -0.04925483f, 0.10405594f, 0.02972307f, 0.17549790f, -0.07119447f, -0.08452215f, -0.05036398f, -0.27246690f, 0.23975131f, 0.00242210f, 0.15631104f, 0.18725838f, 0.09908900f, 0.12766229f, 0.06347346f, 0.21259364f, -0.06802289f, -0.13227786f, -0.20734844f, -0.23117794f, -0.33688119f, 0.05229541f, 0.18006763f, 0.08750501f, 0.01466519f, 0.03293910f, 0.04181642f, 0.07192556f, -0.07700315f, -0.04743286f, -0.10586695f, -0.12723859f, 0.04727056f, -0.08638823f, 0.16168220f, 0.06381543f, 0.24495538f, 0.15994321f, 0.04082091f, 0.03037377f, -0.09756204f, -0.22516380f, -0.09788387f, -0.12724356f, -0.13024923f, 0.04378282f, 0.10553538f, 0.14653817f, 0.08902450f, 0.13231178f, 0.04778671f, -0.00670457f, -0.05257473f, -0.00730561f, -0.24194351f, -0.18417606f, -0.08656428f, 0.08203020f, 0.10094180f, 0.11382656f, 0.03570417f, 0.15151937f, -0.09277499f, 0.07246130f, -0.20713180f, -0.25932699f, -0.10058682f, -0.06913012f, 0.18312803f, 0.08693489f, 0.03380200f, 0.12689720f, 0.11202180f, 0.14462242f, 0.01428508f, -0.18121633f, -0.08725054f, -0.06633313f, 0.00028049f, -0.12969105f, 0.05143844f, 0.07343869f, 0.05892155f, 0.08407889f, 0.09400336f, 0.17597762f, 0.00824015f, 0.11930289f, -0.11712031f, -0.08612797f, -0.03656447f, -0.14960380f, 0.22274119f, 0.10426679f, 0.27811101f, -0.04633411f, 0.16619968f, 0.13120435f, -0.28329736f, 0.10283435f, -0.04068568f, -0.09596574f, -0.13267718f, -0.14815596f, 0.09696270f, 0.12824412f, 0.04046514f, 0.12696417f, 0.05910309f, 0.13301294f, -0.16771680f, 0.09634707f, 0.01530856f, -0.28689846f, -0.05196119f, -0.20272519f, 0.10730126f, 0.09238227f, 0.01019994f, 0.13391142f, 0.18709652f, 0.09579311f, 0.12277166f, 0.03710112f, -0.09595446f, -0.16730136f, -0.01407584f, -0.18375681f, 0.07949841f, 0.06464677f, 0.00190210f, 0.08627192f, 0.10354616f, 0.12670998f, 0.05668754f, 0.01193259f, -0.14087830f, -0.06222465f, 0.04300341f, -0.19195826f, 0.01441302f, 0.00598594f, 0.15157923f, 0.09558017f, -0.11374646f, 0.13132475f, 0.01166847f, -0.00480459f, -0.09008761f, -0.12650070f, -0.03801909f, -0.11293054f, 0.04604921f, 0.11846621f, 0.03221959f, 0.09830979f, 0.01575731f, 0.09768202f, 0.02261818f, 0.03579352f, -0.02285111f, -0.00302966f, 0.01623732f, -0.12876876f, -0.07483506f, 0.07387314f, 0.05564598f, 0.10861183f, 0.15822187f, 0.17767741f, 0.13159105f, 0.01181380f, -0.17256136f, -0.15588419f, -0.15063727f, -0.07155772f, 0.08338255f, -0.04460090f, 0.05940002f, 0.16243583f, 0.18413363f, 0.20830956f, 0.06057382f, 0.10474381f, -0.16144757f, -0.08330911f, -0.09116033f, -0.14031564f, -0.11057827f, 0.05480279f, 0.17202942f, 0.09166354f, 0.15014322f, 0.17703891f, -0.07328612f, 0.15116435f, -0.05147425f, -0.13343982f, -0.17479232f, -0.13237453f, -0.01448235f, -0.02966833f, 0.12735778f, 0.17785509f, 0.23259453f, 0.21448067f, 0.03746687f, 0.19317810f, -0.12689796f, 0.00992193f, 0.01695264f, -0.26946619f, -0.12675506f, 0.10020997f, 0.09943640f, -0.12064613f, 0.22291911f, 0.03670322f, -0.06892565f, 0.05612546f, -0.05317864f, 0.03433637f, -0.06336226f, -0.18854313f, 0.10958856f, 0.06648708f, 0.01362051f, 0.11541234f, 0.03007874f, 0.09137024f, -0.04191265f, 0.03143009f, -0.09145252f, -0.17108969f, -0.02519178f, -0.12499616f, 0.06215699f, -0.09197871f, 0.11054385f, -0.09027319f, 0.30061039f, 0.24381623f, 0.06129462f, 0.04393939f, -0.12815577f, -0.07201247f, -0.18313088f, -0.15016566f, -0.05376852f, 0.02591646f, 0.04634538f, 0.13298309f, 0.14021808f, 0.06336142f, -0.00942320f, 0.03867660f, -0.37795085f, -0.15566126f, 0.09032748f, -0.14794995f, 0.00349272f, 0.02626941f, -0.02129031f, 0.04697179f, 0.16865584f, 0.22602230f, 0.08917212f, -0.01328401f, -0.02512507f, -0.11477385f, 0.04169049f, -0.14043441f, 0.06295438f, -0.06963287f, 0.10225057f, 0.16332297f, 0.17451227f, 0.29872224f, -0.12116503f, 0.08052247f, -0.03451340f, -0.12927569f, 0.00175694f, -0.13006632f, 0.02296426f, -0.08786493f, 0.10118275f, 0.11854261f, 0.04105211f, 0.18979219f, -0.05391428f, -0.02160181f, 0.03552792f, -0.01655297f, 0.04750932f, -0.16420387f, -0.08793311f, 0.27009344f, -0.04870109f, 0.02600127f, -0.01243289f, 0.17313364f, 0.15230609f, 0.06527605f, -0.01886038f, -0.14454089f, 0.04355280f, -0.08174767f, 0.09700647f, 0.21733506f, 0.16026285f, 0.09300119f, 0.12206991f, 0.10602754f, -0.07570796f, -0.00966254f, 0.06710409f, -0.09253526f, -0.06059381f, -0.07019739f, 0.04463246f, -0.05765389f, 0.17491120f, 0.12297004f, 0.29357204f, 0.17953572f, -0.27221867f, 0.04145229f, -0.04459592f, -0.01906906f, 0.14999901f, -0.14210199f, -0.00180884f, 0.05532745f, 0.14050338f, 0.14061427f, 0.09976400f, 0.16083682f, 0.06254445f, 0.02792924f, -0.03687223f, 0.03288493f, -0.05988695f, -0.12524585f, -0.16226089f, 0.05261170f, -0.01226642f, -0.15992412f, 0.08180460f, 0.09819804f, -0.10786498f, -0.06093328f, -0.05910680f, -0.14755672f, 0.03429135f, -0.11762160f, 0.06966305f, -0.07830785f, 0.13573676f, 0.16961017f, 0.10753369f, 0.08135056f, 0.01934905f, -0.08989478f, -0.07795531f, -0.08657122f, -0.12960392f, -0.15637814f, 0.02582056f, -0.08531125f, 0.06339472f, 0.05673150f, 0.11571272f, 0.19787867f, -0.05692608f, -0.04559123f, 0.01244455f, -0.10670790f, -0.12902325f, -0.06621581f, -0.01415874f, -0.25915411f, 0.03014333f, 0.13043275f, 0.21257538f, 0.11340768f, -0.04995940f, -0.08558728f, -0.27317637f, -0.07324960f, -0.25490835f, -0.13280080f, 0.10892073f, -0.09370906f, 0.21430068f, 0.13174652f, 0.19646433f, 0.17285508f, -0.06069377f, 0.03524147f, -0.00827383f, -0.03444629f, -0.13284090f, -0.22731265f, -0.10782870f, 0.03342995f, 0.23183833f, 0.04996147f, 0.03096993f, -0.12839027f, 0.01002810f, -0.01622713f, -0.02660922f, 0.01423709f, -0.06471411f, -0.07824295f, -0.19192825f, 0.02385190f, 0.11192660f, 0.04251301f, 0.17577413f, 0.20751150f, -0.12118480f, -0.02191124f, -0.01992564f, 0.10553268f, -0.02904144f, -0.10529790f, -0.09384015f, -0.01001164f, -0.03791450f, 0.08543289f, 0.11069500f, 0.10603920f, -0.15910253f, 0.01744883f, -0.07717495f, -0.03868623f, -0.06991122f, -0.11831152f, -0.18626973f, 0.00626281f, 0.10016257f, 0.14589959f, 0.02758420f, 0.02149158f, -0.01533978f, -0.03432592f, -0.04977707f, -0.17821041f, -0.01290109f, -0.11553391f, -0.02787582f, -0.00129314f, 0.21600369f, 0.16069333f, 0.03351794f, 0.22903928f, 0.00684767f, 0.02583373f, 0.06644030f, -0.02029532f, -0.10031388f, -0.09410223f, 0.00387545f, -0.02621432f, 0.04581444f, 0.08944193f, 0.15601322f, 0.17197545f, -0.06498295f, 0.00967328f, -0.04171223f, -0.10382196f, -0.08341381f, -0.07504568f, -0.05249700f, -0.02380200f, 0.06772316f, 0.06618828f, 0.19093947f, -0.00778583f, 0.08822622f, 0.02479659f, -0.14295422f, -0.09184447f, -0.08160159f, -0.18272956f, -0.02948090f, -0.03357414f, 0.04452736f, 0.11508797f, 0.19420703f, 0.13540831f, -0.02402725f, 0.03225953f, 0.00971212f, -0.06831302f, -0.08977987f, -0.11792554f, 0.05719639f, 0.06133109f},
    {-0.03069270f, -0.09948607f, 0.09449907f, 0.09096860f, 0.10478843f, -0.03486098f, 0.01447458f, -0.27670503f, -0.19608469f, -0.19725156f, 0.07417040f, -0.14480028f, 0.01393087f, 0.03941075f, 0.07632335f, 0.10592407f, 0.08753383f, -0.05051937f, 0.01338326f, -0.14619647f, 0.00522092f, -0.27352560f, 0.04656627f, -0.11763261f, -0.02098466f, 0.02491176f, 0.17297900f, 0.19162722f, 0.21731949f, -0.09483044f, 0.03393595f, -0.05293889f, 0.02675374f, -0.20204741f, -0.00007710f, -0.06934487f, -0.03504165f, -0.02060243f, 0.14995408f, 0.06690121f, 0.21175213f, -0.11533375f, 0.01866403f, -0.02055514f, -0.05989674f, -0.09260803f, 0.25671852f, -0.00182299f, 0.02597309f, 0.06716948f, -0.04522121f, 0.17036228f, 0.25826025f, 0.05006532f, 0.01647871f, -0.00009876f, -0.04364392f, -0.13336313f, -0.09890176f, 0.07822222f, -0.00035412f, -0.14739059f, 0.10728324f, 0.10763611f, -0.03293715f, 0.03443522f, -0.00133565f, -0.00163659f, -0.06563555f, -0.00425666f, 0.03972698f, -0.03427731f, 0.03322287f, 0.02954968f, 0.11759164f, 0.04852977f, -0.17764285f, 0.12870856f, -0.02497306f, -0.05149562f, -0.11853486f, -0.15653981f, -0.20212129f, -0.27476084f, 0.02038633f, 0.12881412f, 0.08588392f, 0.08354273f, 0.10699881f, 0.08914582f, 0.02001107f, -0.27611116f, -0.01668510f, -0.04042189f, 0.05998587f, -0.19478953f, -0.08696984f, 0.04704481f, 0.06335728f, 0.17767639f, 0.19802344f, -0.07964079f, 0.10757237f, -0.09388839f, -0.12029648f, -0.08702714f, -0.05175359f, -0.09954568f, 0.05474268f, 0.04701171f, 0.12556078f, 0.20696712f, 0.11304866f, -0.00189205f, 0.00078698f, -0.01302881f, -0.19405392f, -0.08892286f, -0.04764216f, -0.18644600f, 0.00294157f, 0.01412650f, 0.16372178f, 0.08275993f, 0.14076716f, -0.14556246f, 0.00720174f, -0.17329714f, -0.16844898f, -0.04542612f, -0.33460951f, -0.02602400f, -0.09770560f, 0.01959914f, 0.13801923f, 0.15401076f, 0.14181469f, -0.21918361f, -0.05513281f, -0.05858057f, 0.06454226f, 0.05984741f, 0.14566784f, -0.05659657f, 0.03349878f, 0.02610368f, 0.15238380f, 0.18684298f, 0.14391574f, -0.22330941f, 0.02209319f, -0.04225091f, -0.07169564f, -0.04193669f, 0.23973550f, 0.17057635f, 0.08279879f, 0.04931792f, 0.16543663f, 0.01427539f, 0.04738303f, 0.07753965f, -0.16442271f, -0.06341200f, -0.07342049f, -0.26084682f, -0.14521083f, 0.05152302f, 0.12723184f, 0.20416006f, 0.22956350f, 0.13604124f, 0.05482501f, 0.00935430f, 0.14735343f, -0.06368194f, 0.00960134f, -0.19382453f, -0.06345207f, -0.17995860f, -0.01061720f, -0.01194965f, 0.16763379f, 0.04402523f, 0.17456593f, 0.13184845f, -0.01573508f, -0.19236569f, -0.16736229f, 0.04625547f, -0.25607613f, 0.05501391f, -0.01447426f, 0.03723824f, 0.28316873f, 0.11200634f, 0.02294407f, -0.04697871f, 0.07208203f, -0.18327579f, -0.05662115f, -0.11705931f, -0.20677255f, 0.18616241f, 0.12580150f, 0.14249681f, 0.11992876f, 0.17224038f, 0.20803657f, -0.18831560f, 0.10994884f, -0.35670042f, -0.22219937f, -0.17883357f, -0.00842478f, -0.09601317f, 0.01677877f, 0.08832023f, 0.19436134f, 0.07682408f, 0.22764578f, -0.23380168f, -0.00317364f, -0.16354403f, -0.13851680f, -0.20105501f, -0.06421494f, -0.06539188f, -0.02510385f, 0.05964899f, 0.11681004f, 0.18453467f, 0.10832720f, -0.27099729f, -0.14213921f, -0.04569815f, -0.10392535f, -0.05653989f, 0.04601990f, 0.06452886f, 0.05548485f, -0.02253667f, 0.26573673f, 0.13795775f, 0.17653918f, -0.25837290f, -0.08661613f, -0.24686840f, -0.24211848f, -0.10483626f, -0.16591269f, 0.01169518f, 0.09158602f, 0.09602167f, 0.18036549f, 0.09283980f, 0.23950459f, -0.13602614f, -0.16615133f, -0.10973166f, 0.10148891f, -0.07387990f, 0.03908315f, 0.10581217f, 0.13042405f, 0.18151176f, 0.21792078f, 0.12713331f, 0.18020703f, -0.01553294f, -0.08074845f, -0.15300472f, -0.19373666f, -0.10943892f, -0.23944551f, 0.22977369f, 0.01576350f, 0.02319854f, 0.18717037f, -0.01070965f, 0.37364721f, 0.05962097f, -0.05777685f, -0.06859021f, -0.15848643f, -0.01194956f, -0.03480033f, -0.04872592f, -0.05971267f, 0.09603140f, 0.14366534f, 0.03587751f, 0.22906020f, 0.08139294f, 0.07663064f, -0.18360357f, -0.08294883f, -0.12478071f, -0.00483558f, 0.12881097f, 0.02497247f, 0.07878911f, 0.21058588f, 0.13172489f, 0.05079215f, -0.00069039f, -0.02111388f, -0.09607580f, -0.21206836f, 0.02631076f, -0.19307522f, -0.08258879f, 0.01625738f, 0.13044475f, 0.08936503f, 0.04580509f, 0.11469842f, -0.33124948f, 0.07103763f, -0.12429783f, -0.11903746f, -0.04370783f, -0.05707474f, -0.04233379f, 0.07019681f, 0.06762815f, 0.22825399f, 0.04365604f, 0.03267019f, 0.06644724f, -0.06083586f, -0.12073497f, -0.12762055f, 0.01731130f, 0.01202674f, 0.06171463f, 0.16594307f, -0.01527724f, 0.14356247f, 0.17257938f, -0.07470565f, -0.39554745f, -0.10038955f, -0.08690473f, -0.13002685f, 0.00907455f, -0.09941423f, 0.14966878f, 0.09304480f, 0.12469578f, 0.22626242f, 0.15473582f, 0.11939798f, -0.58287650f, -0.01322641f, -0.13563769f, -0.21927363f, -0.14265694f, -0.03826370f, 0.00673875f, 0.16271004f, 0.14059775f, 0.28184113f, 0.12019289f, 0.16980535f, -0.54223424f, 0.04235933f, -0.13838039f, -0.05856006f, 0.03486831f, -0.08980010f, 0.04528292f, -0.02728652f, 0.19544424f, 0.20751801f, 0.24890879f, 0.25814134f, -0.13909915f, -0.03602011f, -0.28480330f, -0.23350802f, -0.00099856f, -0.16636001f, 0.21736421f, -0.06253107f, 0.13824078f, 0.09086376f, 0.19136958f, 0.21775642f, 0.13841388f, 0.07129196f, -0.14933217f, -0.09392342f, -0.02442187f, -0.09299386f, -0.08481598f, 0.06666835f, 0.13712782f, 0.20270796f, 0.26129711f, 0.28040448f, -0.00073815f, 0.05308690f, -0.14409208f, -0.03946398f, -0.05303646f, -0.06191978f, -0.08875623f, 0.01372703f, 0.03210524f, 0.02271226f, 0.17977253f, 0.19108914f, -0.23314549f, -0.03668318f, -0.07797383f, -0.14935742f, -0.09285729f, 0.02200043f, -0.03849766f, 0.12957020f, 0.19737142f, 0.04768389f, 0.09733436f, 0.04543427f, -0.24713311f, -0.06832704f, -0.10145600f, -0.11216682f, -0.03277742f, 0.03081425f, -0.02634129f, 0.08780367f, 0.17960449f, 0.12670228f, 0.16976935f, 0.00585141f, -0.08939106f, -0.13564251f, -0.13549697f, -0.18347321f, 0.01597015f, -0.06697253f, 0.13033068f, 0.15040959f, 0.24481131f, 0.11098926f, 0.21123613f, 0.09650372f, -0.40400851f, 0.00639388f, -0.17377959f, -0.11110345f, -0.10831904f, 0.01504251f, 0.08730198f, 0.01960272f, 0.00411531f, 0.10739245f, -0.00166142f, 0.18248112f, -0.28370568f, 0.02938073f, -0.12429251f, -0.17033243f, -0.07046052f, -0.05599434f, 0.27721566f, -0.06168257f, 0.19968565f, 0.10786825f, 0.08609840f, -0.03580203f, -0.01144711f, -0.02293696f, -0.10088427f, -0.00081606f, -0.01773224f, 0.01887256f, -0.15224326f, -0.08591668f, 0.20871691f, 0.08499511f, 0.10499073f, 0.01198182f, -0.21404962f, 0.04338517f, -0.09966672f, -0.14936560f, 0.00746510f, -0.06282514f, -0.02146262f, -0.00285609f, 0.02106499f, 0.17462109f, -0.02656241f, 0.02259152f, -0.25289428f, -0.01599601f, -0.05479859f, -0.19721399f, -0.20488095f, -0.05383163f, 0.01460252f, 0.03055151f, 0.04065515f, 0.19456522f, 0.12220292f, 0.21861683f, 0.07523926f, -0.11708343f, -0.06108067f, -0.11794251f, 0.01001110f, -0.00762851f, 0.05295434f, 0.15441419f, 0.14711484f, 0.01536307f, -0.01001010f, 0.22174862f, 0.23351209f, 0.05702135f, 0.01368321f, -0.05479721f, -0.17866899f, 0.01208089f, 0.09006681f, 0.07013945f, 0.20079905f, 0.05601088f, 0.27753773f, 0.09774607f, 0.08558299f, -0.04814849f, -0.06566779f, 0.00071795f, -0.30108380f, -0.04046081f, 0.00050671f, -0.04131515f, -0.20984901f, -0.11725702f, 0.09331972f, 0.08347449f, -0.14080311f, 0.04469028f, -0.08844599f, -0.15645993f, -0.10883534f, -0.01282468f, 0.10851974f, -0.13630788f, 0.03618148f, -0.12324996f, -0.04610234f, 0.01399203f, -0.14884308f, -0.03113517f, -0.12008014f, -0.11259545f, -0.01253241f, -0.09890541f, -0.04707696f, -0.11537683f, 0.13746919f, 0.18140182f, 0.16076182f, 0.17596988f, -0.17742707f, 0.08453726f, -0.04716388f, -0.09623718f, 0.01393700f, 0.06060242f, -0.10142729f, 0.01879895f, 0.21232939f, 0.09388731f, 0.23790666f, 0.27385160f, -0.08910285f, 0.10451796f, -0.14105518f, 0.05698197f, 0.03438037f, -0.03848624f, 0.14773747f, -0.08057795f, -0.11595540f, 0.05694317f, 0.14533871f, 0.08903664f, -0.21738480f, -0.04234814f, 0.07392527f, -0.05253876f, -0.18142548f, -0.11534335f, 0.06084960f, -0.03429593f, 0.19253856f, 0.14017645f, 0.25778452f, 0.09916951f, 0.01457000f, 0.02710061f, -0.06337733f, -0.15435004f, -0.10532691f, -0.13383406f, -0.01920229f, 0.20535728f, -0.17824043f, -0.21872625f, 0.02587378f, 0.25538215f, 0.07518999f, 0.07458680f, -0.13298906f, -0.08368140f, -0.28517991f, -0.11543636f, -0.00793909f, 0.04970216f, 0.14391084f, -0.13053513f, 0.10034997f, -0.25197050f, -0.22513928f, 0.06891175f, -0.05737856f, -0.10238755f, -0.14609329f, -0.01779205f, 0.01828843f, 0.17881076f, 0.06245210f, 0.29315379f, 0.06987255f, 0.21955363f, 0.03368274f, -0.00026261f, -0.04855869f, 0.08861531f, -0.06193625f, -0.15381803f, -0.11225132f, 0.47968850f, 0.14561923f, 0.07754374f, 0.18860523f, 0.04752098f, -0.08011866f, 0.04101026f, -0.08239865f, -0.20765285f, 0.02818439f, -0.00995912f, -0.07784262f, 0.19359782f, 0.15243359f, 0.39891502f, 0.22894639f, 0.18838826f, -0.01876288f, 0.11594834f, 0.07687569f, -0.29917258f, 0.09356277f, 0.04464780f, -0.09065090f, -0.02776507f, 0.11093146f, 0.08346410f, 0.09855814f, 0.09314536f, 0.00505246f, 0.02022618f, -0.03714452f, -0.08436389f, -0.01778392f, 0.03905430f, 0.08581595f, 0.02314916f, 0.10984404f, -0.06925931f, 0.08371750f, 0.13811818f, -0.07774394f, 0.00186183f, -0.02422130f, -0.24499869f, -0.01323892f, -0.04504198f, 0.03031496f, 0.00924470f, 0.16101551f, -0.22126834f, 0.42538682f, 0.28112411f, -0.09256561f, 0.00245454f, 0.01850403f, -0.09603184f, -0.03217022f, 0.04920072f, -0.04750269f, 0.01744710f, 0.20597182f, 0.06257021f, 0.13011658f, -0.18148255f, -0.00878948f, -0.01293195f, 0.01228489f, -0.21759301f, -0.08905710f, -0.00531815f, 0.00038258f, -0.02514246f, 0.24664873f, 0.22960296f, 0.17378484f, 0.08361906f, 0.02686620f, -0.02790078f, -0.15292141f, 0.09195442f, 0.04489691f, 0.05488905f, -0.17916927f, -0.01845582f, -0.02282328f, -0.04927162f, 0.11479328f, 0.14133042f, -0.00884031f, 0.03453216f, -0.12892450f, -0.01072717f, -0.02085416f, -0.07123335f, -0.09954854f, -0.00880842f, -0.00353441f, -0.08712212f, 0.13328199f, 0.34782362f, 0.05286822f, 0.02711703f, -0.06909599f, -0.12020230f, -0.06822458f, 0.06951048f, -0.26440334f, -0.02913385f, -0.00676072f, 0.07003706f, 0.06412949f, -0.01283470f, -0.02773865f, -0.03445804f, -0.32624418f, 0.07375851f, 0.04014693f, -0.12520175f, -0.20337529f, 0.05880840f},
    {-0.03528011f, -0.03078265f, -0.04593135f, -0.09288078f, -0.07474779f, 0.03542864f, 0.02397130f, 0.02243447f, 0.05915580f, 0.11330525f, 0.18185405f, 0.03548593f, -0.01762835f, -0.01441887f, -0.05253056f, -0.09671594f, -0.13258462f, -0.04552362f, -0.00456387f, 0.02678004f, 0.03570084f, 0.16049263f, 0.16742669f, 0.02711649f, -0.03135293f, -0.01628268f, -0.02631289f, -0.05160789f, -0.16460237f, 0.00590944f, -0.01602119f, 0.05199729f, 0.07364464f, 0.13571586f, 0.19892579f, 0.03194381f, 0.00290224f, -0.03853562f, -0.05225033f, -0.05677287f, -0.14911914f, 0.06189304f, -0.02997402f, 0.05841330f, 0.12762241f, 0.12727830f, 0.16601877f, 0.04584698f, 0.00822627f, -0.02736548f, -0.03744625f, -0.08577403f, -0.16268860f, 0.02426501f, 0.00526263f, 0.03649667f, 0.05341211f, 0.11310257f, 0.16262954f, 0.07491416f, 0.00411873f, -0.01333414f, -0.06738407f, -0.08005778f, -0.17752500f, 0.04014167f, 0.02236176f, 0.07596894f, 0.02768964f, 0.16011721f, 0.14555058f, 0.02819878f, 0.00955886f, -0.05474606f, -0.06878871f, -0.05559944f, -0.15856420f, 0.02509706f, -0.01476769f, 0.01846983f, 0.01906378f, 0.14433199f, 0.21115722f, -0.22940902f, -0.03281549f, -0.06062533f, -0.00640393f, -0.10221227f, -0.17040952f, -0.00546761f, -0.02870640f, 0.02803202f, 0.05885211f, 0.12185374f, 0.18975942f, -0.06170533f, -0.00416686f, -0.06066111f, -0.06327128f, -0.06779972f, -0.14931832f, 0.10093441f, 0.04466245f, 0.06503880f, 0.06063859f, 0.09496950f, 0.16222455f, 0.02655456f, -0.01569388f, -0.03615578f, -0.05811185f, -0.06057905f, -0.15326285f, 0.06677078f, 0.09497330f, 0.06645476f, 0.06127612f, 0.14444122f, 0.18538862f, 0.00759529f, -0.02252384f, -0.03301983f, -0.03371274f, -0.07093835f, -0.12215748f, 0.06884661f, 0.08331798f, 0.07672615f, 0.09896050f, 0.14362894f, 0.15864518f, 0.04976870f, -0.02757427f, -0.02895433f, -0.02591639f, -0.09662893f, -0.15921919f, 0.07471247f, 0.08612140f, 0.05272087f, 0.07265922f, 0.16610676f, 0.25039575f, 0.11690200f, -0.02407158f, -0.03932838f, -0.01989252f, -0.04523465f, -0.15750013f, 0.03371963f, 0.07964450f, 0.06710377f, 0.09802768f, 0.15554975f, 0.24562752f, 0.06011055f, -0.02055786f, -0.02384115f, -0.01516134f, -0.06803540f, -0.17073734f, 0.04194143f, 0.12783591f, 0.02897022f, 0.06430700f, 0.17512608f, 0.24231227f, -0.02663471f, 0.00089232f, -0.01748326f, -0.02700917f, -0.08379555f, -0.17229533f, 0.05737684f, 0.14447048f, 0.04367631f, 0.05316387f, 0.10917655f, 0.18157142f, 0.01135193f, -0.02660454f, 0.00605386f, -0.03025923f, -0.06962699f, -0.17863162f, 0.05758854f, 0.06564953f, 0.00899438f, 0.05602541f, 0.10762393f, 0.19224413f, -0.02972496f, 0.02498855f, -0.03746281f, -0.04971527f, -0.08331801f, -0.19412701f, 0.06788834f, 0.11414443f, 0.06135331f, 0.03145922f, 0.10976453f, 0.18151140f, 0.07048178f, 0.00236869f, -0.04321454f, -0.07192555f, -0.07933813f, -0.12015777f, 0.01405400f, 0.13255048f, 0.03129690f, 0.09319957f, 0.12072611f, 0.13704434f, 0.04939901f, -0.04745318f, -0.02304004f, -0.03057155f, -0.10285544f, -0.14463329f, 0.07686619f, 0.08240797f, 0.03018758f, 0.02542367f, 0.11104754f, 0.19463812f, 0.01159017f, -0.02149523f, -0.04819353f, -0.02031929f, -0.06548490f, -0.15854765f, 0.03211989f, 0.10037532f, 0.09453431f, 0.05027078f, 0.04830767f, 0.17536436f, 0.01999593f, -0.01658925f, -0.06038277f, -0.04072167f, -0.07126162f, -0.09978313f, 0.04174054f, 0.11183809f, 0.06008963f, 0.05526771f, 0.09822784f, 0.18635429f, 0.06433652f, 0.01458270f, -0.03278932f, -0.01729611f, -0.08803885f, -0.11782130f, 0.03376044f, 0.13081801f, 0.07379479f, 0.02080792f, 0.17839512f, 0.21518587f, 0.08367966f, -0.01369963f, -0.03772197f, -0.08443484f, -0.06610080f, -0.18037921f, 0.03239609f, 0.12671542f, 0.04049349f, 0.04136347f, 0.13233157f, 0.14809036f, 0.08915115f, 0.01926043f, -0.05387864f, -0.04139961f, -0.03045652f, -0.14283299f, 0.05522836f, 0.16914900f, 0.06323260f, 0.04392873f, 0.14286034f, 0.17327137f, 0.03804395f, 0.00186837f, -0.05603698f, -0.06493896f, -0.09713039f, -0.14230716f, 0.08562525f, 0.13135424f, 0.04008676f, 0.06623207f, 0.09573256f, 0.15567067f, 0.08228374f, -0.05128603f, -0.00185455f, -0.01688087f, -0.08718864f, -0.18455608f, 0.03730809f, 0.03727078f, 0.05389387f, 0.06038955f, 0.13239700f, 0.18682192f, 0.02800302f, -0.00649505f, -0.01182535f, -0.07976549f, -0.08635014f, -0.17469044f, 0.03479768f, 0.02737023f, 0.08270293f, 0.02917036f, 0.09074003f, 0.21315677f, 0.07995396f, 0.01201062f, -0.02107524f, -0.06854741f, -0.11079162f, -0.13547963f, 0.02880415f, 0.05668579f, 0.01529798f, 0.04867686f, 0.13530652f, 0.19695190f, 0.09124578f, 0.01132429f, -0.04881734f, -0.02693288f, -0.10420188f, -0.17548151f, 0.02326782f, 0.07794202f, 0.04146597f, 0.06663616f, 0.13436575f, 0.18921424f, 0.08294164f, -0.01840139f, -0.03055474f, -0.04583431f, -0.09532925f, -0.19477277f, 0.05551536f, 0.03211962f, 0.08370146f, 0.05715426f, 0.17053291f, 0.19211365f, 0.07619976f, 0.03510142f, 0.01257415f, -0.05622097f, -0.05280475f, -0.14899653f, 0.04844615f, 0.08692672f, 0.07797910f, 0.08381308f, 0.11455360f, 0.20299999f, 0.10404453f, 0.02174224f, -0.02668059f, -0.03208200f, -0.07775847f, -0.14707571f, 0.04985781f, 0.12343374f, 0.08169402f, 0.03551518f, 0.14044867f, 0.19897038f, 0.01912501f, 0.00286169f, 0.00019027f, -0.02438267f, -0.05252193f, -0.11904889f, 0.06084760f, 0.10535451f, 0.01287494f, 0.07569174f, 0.12705620f, 0.14094442f, 0.04273022f, 0.01349233f, -0.04943146f, -0.02785777f, -0.04285057f, -0.15107892f, 0.05522127f, 0.03815301f, -0.00038981f, 0.03706485f, 0.08898552f, 0.18432023f, 0.01229927f, -0.00360277f, 0.00661469f, -0.04441303f, -0.06839623f, -0.22789478f, 0.07334202f, 0.07478110f, 0.04359392f, 0.03926575f, 0.12581451f, 0.14680457f, 0.05105823f, 0.04069711f, -0.06021273f, -0.04024476f, -0.05563672f, -0.16740488f, 0.02211458f, 0.03803392f, 0.06279257f, 0.07623196f, 0.13560472f, 0.16929045f, 0.05224433f, -0.01880877f, -0.01092317f, -0.07798406f, -0.10787142f, -0.14637874f, 0.04820070f, 0.00294435f, 0.03862484f, 0.04403775f, 0.11189003f, 0.16066496f, 0.06373106f, 0.00220973f, -0.04023400f, -0.06639464f, -0.06006994f, -0.18100926f, 0.07649383f, 0.06974766f, 0.07347886f, 0.04212134f, 0.10718971f, 0.19049284f, 0.01793529f, 0.03414175f, -0.01939074f, -0.05687818f, -0.05821684f, -0.16665475f, 0.03629322f, 0.14341891f, 0.09803089f, 0.07320521f, 0.09609181f, 0.21877316f, 0.09382911f, 0.02492140f, -0.02359288f, -0.03030770f, -0.04490370f, -0.18923275f, 0.04854590f, 0.10092172f, 0.02861658f, 0.07589247f, 0.14405735f, 0.21792641f, -0.02911910f, 0.02534915f, 0.00731562f, -0.04677610f, -0.09631408f, -0.21968423f, -0.00292744f, 0.07306606f, 0.02502133f, 0.09850781f, 0.12447785f, 0.14821367f, 0.04651660f, 0.00087165f, -0.04357979f, -0.06790985f, -0.09711832f, -0.16898377f, 0.01320333f, 0.06617458f, 0.08050579f, 0.06148192f, 0.11430833f, 0.16242586f, 0.02145952f, -0.01106725f, -0.01495460f, -0.03622954f, -0.05779452f, -0.16331466f, -0.05371319f, 0.02912175f, 0.06177512f, 0.10397436f, 0.08141074f, 0.21189998f, 0.04712204f, -0.00400468f, -0.07439124f, 0.00699610f, -0.12578249f, -0.13332684f, 0.02095326f, 0.04000899f, -0.03256294f, 0.04455464f, 0.12937516f, 0.21742892f, 0.03401534f, 0.00482001f, -0.05580036f, -0.05000565f, -0.10289577f, -0.18897347f, 0.04355035f, 0.05509844f, 0.07267657f, 0.09778671f, 0.14484055f, 0.18932854f, 0.05353489f, -0.00429183f, -0.06358156f, -0.03601741f, -0.08633268f, -0.18046682f, -0.04187911f, 0.07751068f, 0.05556602f, 0.03279357f, 0.07634886f, 0.15760140f, 0.06246436f, 0.00286223f, -0.08437643f, -0.08107273f, -0.09302101f, -0.16239546f, 0.04621153f, 0.06809592f, 0.05062390f, 0.07724512f, 0.13278657f, 0.18474574f, 0.05465148f, 0.05241896f, -0.04278703f, -0.10579106f, -0.10685555f, -0.16883616f, 0.04439660f, 0.10172606f, 0.02941371f, 0.05383055f, 0.14761525f, 0.21737440f, 0.05751039f, -0.06618167f, -0.03912988f, -0.05220459f, -0.07268455f, -0.12455983f, 0.08628486f, 0.03316142f, 0.03822769f, 0.03903998f, 0.14543082f, 0.17510973f, 0.01247891f, -0.02541766f, -0.03714350f, -0.01645476f, -0.04216221f, -0.19801714f, -0.06491628f, -0.00049576f, 0.09710246f, 0.05515832f, 0.09688223f, 0.14315730f, 0.03148866f, -0.03893039f, -0.04037248f, -0.03817014f, -0.10378283f, -0.14350510f, -0.02162628f, 0.07258322f, 0.05876678f, 0.04551079f, 0.09287839f, 0.13605236f, -0.00707943f, -0.01005093f, -0.04201583f, -0.00733338f, -0.04041486f, -0.13416791f, 0.05341185f, 0.04567302f, 0.08021218f, 0.04305366f, 0.10555611f, 0.12485373f, 0.00373129f, -0.05911319f, -0.08010938f, -0.06417897f, -0.11880729f, -0.11572801f, -0.04219102f, 0.05167977f, 0.10105528f, 0.05826731f, 0.17285264f, 0.18485433f, 0.00954466f, -0.03537972f, -0.05349773f, -0.03675253f, -0.09294199f, -0.18381955f, 0.04003938f, 0.04030422f, 0.04869342f, 0.10748274f, 0.10469684f, 0.14865795f, 0.02188106f, -0.00186969f, -0.05339523f, -0.04499052f, -0.07838114f, -0.23536757f, -0.14780642f, 0.06462750f, 0.02832422f, 0.09595870f, 0.09502335f, 0.20744047f, 0.05122824f, -0.00399069f, -0.04891808f, -0.04773596f, -0.04981721f, -0.20823783f, 0.07022979f, 0.05771676f, 0.07576663f, 0.10847271f, 0.11648687f, 0.24389350f, 0.01796631f, -0.00890458f, -0.04058826f, 0.01364205f, -0.07536071f, -0.15754111f, 0.10290059f, 0.01283972f, 0.03793659f, 0.13969129f, 0.13032717f, 0.19461484f, 0.02318229f, -0.02848456f, -0.01382035f, -0.02073048f, -0.05582419f, -0.25063041f, 0.07386800f, -0.02209079f, 0.06572708f, 0.06737262f, 0.13547646f, 0.13121082f, 0.03448832f, -0.02783390f, -0.03647680f, -0.05896208f, -0.04642317f, -0.18013668f, 0.00328003f, -0.03193253f, 0.08610994f, 0.05991756f, 0.11864364f, 0.20176543f, -0.00804082f, -0.01216536f, -0.01568452f, -0.05272401f, -0.08297448f, -0.09679776f, -0.00076372f, 0.03315035f, 0.10498609f, 0.11112095f, 0.12158750f, 0.15595590f, 0.04876164f, -0.00025913f, -0.00821250f, -0.01632922f, -0.18039238f, -0.21733476f, 0.04729046f, 0.02049888f, 0.09003141f, 0.10436927f, 0.12226272f, 0.14281654f, -0.00977879f, 0.02070520f, -0.01272621f, -0.01781731f, -0.08270652f, -0.19822806f, 0.10927839f, 0.03144203f, 0.05422654f, 0.04503658f, 0.11286003f, 0.17912020f, 0.03022364f, 0.02929931f, -0.11069241f, -0.00713600f, -0.05860310f, -0.17393583f, 0.03630858f, -0.03493494f, 0.06101349f, 0.04980369f, 0.13795575f, 0.17333336f, 0.04153683f, 0.03171523f, -0.03413425f, -0.01751360f, -0.06888569f, -0.20642206f, 0.00073553f, -0.02137743f, 0.04413483f, 0.03767472f, 0.13287701f, 0.15609802f, 0.05700858f, 0.00955555f},
    {0.00937682f, 0.07814237f, -0.00917688f, 0.12443703f, 0.17099047f, 0.05947450f, -0.03558215f, 0.02795508f, -0.01544809f, -0.06655017f, -0.10068304f, 0.01467430f, 0.00576816f, 0.01900103f, 0.09540320f, 0.14650381f, 0.22635604f, 0.03302375f, -0.02975095f, 0.01964252f, 0.02776150f, -0.05391736f, -0.13328481f, 0.03092913f, -0.00744503f, 0.07252273f, 0.02060849f, 0.11419773f, 0.15605183f, 0.07151467f, 0.01384216f, -0.01610966f, -0.00782205f, -0.04404434f, -0.14382461f, 0.01430084f, -0.01069138f, 0.05687033f, 0.02452916f, 0.10125492f, 0.15997000f, 0.06068919f, -0.00364533f, -0.00946102f, 0.01410794f, -0.09706312f, -0.25122678f, -0.01332324f, 0.02537348f, 0.03019998f, -0.03482926f, 0.16685113f, 0.21480875f, 0.01299883f, 0.02830108f, -0.01456773f, -0.02978773f, -0.19410671f, -0.27205908f, 0.00567638f, 0.01314123f, 0.08139291f, 0.07374745f, 0.08359487f, 0.19152990f, 0.04029996f, -0.02919516f, -0.03989239f, -0.00902004f, -0.07461125f, -0.25955752f, -0.03255786f, -0.01953943f, 0.05929800f, 0.06118945f, 0.10078730f, 0.18437788f, 0.03328488f, 0.02544387f, -0.04830416f, -0.01666573f, -0.04820467f, -0.21031252f, 0.02965466f, -0.03054606f, 0.04920555f, 0.10496195f, 0.05438571f, 0.14679278f, 0.01769030f, 0.02901488f, -0.04918222f, -0.04733532f, -0.06018200f, -0.12524061f, 0.04591565f, 0.03320339f, 0.11367000f, 0.07251505f, 0.08453437f, 0.18765561f, 0.04158800f, -0.06426649f, 0.00649122f, -0.02110577f, -0.04944481f, -0.19075981f, -0.01360572f, -0.00645814f, -0.04223195f, -0.00177733f, 0.08095396f, 0.03455286f, 0.04083554f, -0.11612826f, -0.01546520f, -0.01207648f, -0.03626349f, -0.14444256f, -0.05691179f, 0.01918476f, 0.03523556f, 0.07134022f, 0.15545049f, 0.16809154f, 0.06001651f, -0.02421628f, -0.03165366f, -0.04162734f, -0.08410469f, -0.21605483f, 0.02990280f, 0.04834713f, 0.10978812f, 0.03832098f, 0.10589023f, 0.05752846f, 0.02363624f, 0.01472881f, -0.02113846f, 0.02871523f, -0.08099487f, -0.27146024f, 0.08573764f, -0.01334190f, 0.06709281f, 0.01012751f, 0.04733153f, 0.19856690f, -0.02212848f, -0.03683855f, 0.01746393f, -0.02158504f, -0.09934858f, -0.22390924f, 0.00293359f, 0.04197399f, 0.04075013f, -0.01411146f, 0.12465209f, 0.25703785f, 0.05510363f, -0.00583382f, -0.00348548f, -0.03816130f, -0.10548108f, -0.12165405f, -0.00705164f, -0.00676834f, 0.05821549f, 0.07615362f, 0.08322734f, 0.21553290f, 0.05055834f, -0.02840283f, -0.02883393f, -0.07607923f, -0.15847462f, -0.10315842f, -0.00453498f, -0.04983123f, 0.01504071f, -0.02559262f, 0.07444563f, 0.15064527f, -0.11781006f, -0.01008794f, -0.09515115f, -0.06303930f, -0.10141554f, -0.13998495f, 0.03997350f, 0.03484938f, 0.02952628f, 0.05051438f, 0.12280685f, 0.16001745f, 0.05079474f, -0.01555380f, -0.01962304f, -0.03184193f, -0.09172094f, -0.21992703f, -0.00589622f, -0.01893099f, 0.06036684f, 0.05475454f, 0.11417847f, 0.18486281f, 0.01151091f, -0.06332888f, -0.06927184f, -0.01400353f, -0.11827417f, -0.11973254f, -0.03283304f, 0.02169834f, 0.01084839f, 0.00567051f, 0.12317909f, 0.20590962f, 0.03885041f, -0.00373165f, -0.02244152f, -0.04288195f, -0.07239469f, -0.15030761f, -0.00324737f, 0.02028209f, 0.06659759f, 0.09605808f, 0.01717036f, 0.21987174f, 0.01402496f, 0.00466310f, -0.02365968f, -0.02550798f, -0.01484361f, -0.29706594f, 0.01145370f, 0.00148137f, 0.01337804f, -0.00310170f, 0.08720613f, 0.17929649f, 0.03151293f, -0.03617276f, -0.01660268f, -0.00707265f, -0.05975986f, -0.14100583f, 0.03575055f, -0.02367341f, 0.06720647f, 0.03195155f, 0.11286075f, 0.13489699f, 0.03532905f, -0.05170568f, -0.04377865f, -0.06335687f, -0.07589668f, -0.22411753f, -0.02032026f, 0.03040946f, 0.05928522f, 0.04731230f, 0.06240425f, 0.16361387f, 0.04821791f, -0.15139364f, -0.04514910f, -0.03049804f, -0.15405960f, -0.23924206f, -0.09561593f, 0.02921506f, 0.02773970f, 0.06909450f, 0.02487440f, 0.17776935f, 0.00338354f, -0.12830080f, -0.04365664f, -0.10165131f, -0.07039515f, -0.16891515f, 0.02411626f, 0.01183562f, 0.06861906f, 0.08308009f, 0.10854752f, 0.22073929f, 0.04164534f, -0.01057349f, -0.04881759f, -0.00252981f, -0.07949609f, -0.13399921f, 0.02911408f, 0.02704305f, 0.04955013f, -0.00597631f, 0.09536850f, 0.12616056f, 0.00585510f, -0.01958356f, -0.03365000f, 0.01317934f, -0.06059799f, -0.18019129f, 0.03559631f, 0.02498392f, -0.03258679f, 0.08319500f, 0.07944901f, 0.16493107f, 0.01654377f, -0.01048506f, 0.02441433f, -0.01396439f, -0.06530441f, -0.23653258f, 0.01669941f, -0.03342898f, 0.04706784f, 0.04568660f, 0.06678018f, 0.16710398f, 0.06607785f, 0.00113907f, 0.01455184f, -0.10209896f, -0.06594819f, -0.18726268f, -0.00770243f, -0.03300147f, 0.05091687f, 0.05051029f, 0.07906661f, 0.17675865f, 0.06438119f, -0.03838622f, -0.02846139f, -0.06277110f, -0.04482754f, -0.17944783f, 0.04211728f, -0.04944995f, 0.08124288f, 0.08104466f, 0.05979114f, 0.18398277f, 0.03837956f, 0.03285798f, 0.01592625f, -0.00500236f, -0.11827828f, -0.13355353f, -0.03594089f, 0.03999463f, 0.02581002f, 0.04070529f, 0.10042517f, 0.19035760f, -0.01069265f, -0.02483779f, -0.01606512f, -0.04524372f, -0.05973666f, -0.19964673f, -0.00028612f, 0.03592191f, 0.09358589f, -0.00379344f, 0.09833936f, 0.17022385f, 0.00736771f, -0.06140412f, -0.04989028f, -0.04990897f, -0.05878901f, -0.11182758f, 0.01088055f, 0.06282065f, 0.02611225f, 0.02661556f, 0.07192774f, 0.22210555f, -0.02683067f, -0.03469060f, -0.01210368f, -0.02020831f, -0.13676903f, -0.09638967f, 0.07724611f, -0.06942374f, 0.04750348f, 0.07404835f, 0.07497438f, 0.09597625f, -0.07565042f, -0.05248650f, -0.02692448f, -0.05030042f, -0.02773777f, -0.11950287f, 0.02387810f, 0.03506750f, 0.07475575f, 0.07368769f, 0.12611231f, 0.19495833f, 0.01306036f, -0.03125674f, -0.08252110f, 0.01842278f, -0.05351457f, -0.10139900f, 0.04249286f, 0.03429646f, 0.04383390f, 0.08068074f, 0.07560029f, 0.18844146f, 0.01268199f, 0.02496556f, -0.01669934f, -0.03604468f, -0.09645038f, -0.14137968f, 0.02339357f, -0.02235102f, 0.04532384f, 0.07262554f, 0.13362676f, 0.21162330f, -0.02589853f, -0.06894373f, 0.00197325f, -0.05376064f, -0.09938890f, -0.14561181f, 0.01604331f, -0.02262374f, 0.04595379f, 0.07285600f, 0.05970508f, 0.24378461f, -0.06183277f, -0.02999941f, -0.04503430f, -0.05183001f, -0.08985150f, -0.17792165f, 0.04171459f, -0.01403182f, 0.07866782f, 0.04530365f, 0.04418131f, 0.21186481f, -0.00594014f, -0.03970623f, -0.04498120f, -0.01703135f, -0.05075217f, -0.16200595f, -0.02517319f, 0.03645917f, 0.06786178f, 0.02466361f, 0.09172366f, 0.20925596f, -0.08373678f, -0.01057578f, -0.00616502f, -0.07993529f, -0.11524556f, -0.16461904f, 0.05264151f, 0.03000602f, 0.04851585f, 0.04375044f, 0.10551198f, 0.23483193f, 0.00571264f, 0.01865800f, -0.01115708f, -0.03493903f, -0.13693665f, -0.19184929f, -0.19350024f, 0.10907370f, 0.08456133f, 0.06162415f, 0.08162785f, 0.20914575f, 0.02558370f, -0.03693046f, -0.00210916f, -0.05449795f, -0.04906086f, -0.14908032f, 0.02789643f, 0.03380414f, 0.07146627f, -0.08481515f, 0.02389274f, 0.19789636f, -0.03225524f, -0.06478539f, -0.03046713f, -0.10412773f, -0.04233171f, -0.17494631f, 0.03843555f, 0.06293964f, 0.06032668f, -0.01333817f, 0.10634322f, 0.18201397f, -0.00771877f, 0.02739443f, 0.02063405f, -0.13038881f, -0.11843070f, -0.14777921f, 0.02177043f, 0.06169970f, 0.05195867f, 0.07726474f, 0.06279623f, 0.16616364f, 0.01039536f, -0.08021168f, -0.09630785f, -0.05140761f, -0.11422900f, -0.15259577f, 0.08294782f, 0.08994424f, 0.01986562f, 0.04740733f, 0.06867108f, 0.12240698f, 0.04914821f, -0.03297815f, -0.06931278f, -0.05437560f, -0.08435199f, -0.27996132f, 0.07728240f, 0.05219407f, 0.09466323f, 0.06738339f, 0.09891041f, 0.17642438f, 0.01128020f, -0.03017376f, -0.02069342f, -0.07718618f, -0.15325190f, -0.13361682f, -0.02056681f, -0.01836959f, 0.04163253f, 0.10605934f, 0.07944354f, 0.25766924f, 0.03935625f, -0.00805193f, -0.05218992f, -0.11809351f, -0.14014043f, -0.19182469f, 0.01934329f, 0.03982892f, 0.04731330f, 0.12225872f, -0.04004679f, 0.19943914f, -0.07716828f, -0.03848344f, -0.04276488f, -0.10092148f, -0.04913423f, -0.15154964f, -0.02416623f, 0.10311309f, 0.09982096f, 0.06984708f, 0.10671465f, 0.17334454f, 0.09973038f, -0.00157214f, -0.00678816f, -0.01076116f, -0.08614714f, -0.15389073f, 0.00750045f, 0.05089520f, -0.00555586f, 0.03703117f, 0.11744085f, 0.14332786f, 0.02594241f, -0.05005416f, -0.03358958f, -0.11322409f, -0.11272978f, -0.12490720f, 0.05053974f, 0.05041796f, 0.06786615f, 0.05665480f, 0.09244117f, 0.14773904f, -0.00630170f, 0.00864195f, -0.13682038f, -0.04920322f, -0.11316003f, -0.10679158f, 0.02711259f, 0.03792198f, 0.03783679f, 0.08370241f, 0.15135919f, 0.08167306f, 0.05025434f, -0.04643811f, -0.06582762f, -0.10408089f, -0.06399386f, -0.27711785f, 0.06379896f, 0.03184406f, 0.03396497f, 0.05860126f, 0.08471310f, 0.19992694f, -0.01530808f, -0.08160733f, -0.09943602f, -0.03732477f, -0.06203532f, -0.14652142f, 0.06697657f, 0.04863461f, 0.09530211f, 0.11500426f, 0.08003615f, 0.24317116f, -0.07455125f, 0.00516182f, -0.03974352f, -0.03556995f, -0.06950922f, -0.12025020f, 0.07999708f, 0.04882949f, 0.09068815f, 0.04895896f, 0.11206030f, 0.21784808f, -0.00246433f, -0.04024917f, -0.03107928f, -0.03586908f, -0.10568013f, -0.11459975f, 0.05329182f, -0.02922721f, 0.04690407f, 0.05546932f, 0.10523889f, 0.20204405f, 0.01015708f, 0.00930823f, -0.15430409f, -0.05196380f, -0.09490748f, -0.19556488f, -0.05869533f, 0.00011425f, 0.00308095f, 0.04217106f, 0.07755313f, 0.18023963f, -0.01870863f, -0.00686558f, -0.01343529f, -0.05381832f, -0.23677161f, -0.14270152f, 0.00611985f, -0.02117743f, 0.01931974f, 0.02341187f, 0.10414591f, 0.17265089f, 0.00119285f, 0.01096373f, -0.04419383f, -0.10029528f, -0.07908235f, -0.15007499f, -0.05032511f, -0.01731367f, 0.04723428f, -0.00368422f, 0.12274146f, 0.12862827f, 0.00704936f, -0.03177669f, -0.03587224f, -0.03785608f, -0.23244174f, -0.12767522f, 0.05265909f, 0.03554797f, -0.00384478f, 0.07049586f, 0.14247297f, 0.19242333f, 0.01853621f, 0.02775966f, -0.03991634f, -0.04320824f, -0.15280779f, -0.13236547f, 0.02420374f, 0.02040239f, 0.01229979f, 0.02872323f, -0.00428373f, 0.16843833f, -0.14702840f, 0.02140762f, -0.01472229f, -0.00559873f, -0.15624805f, -0.14686377f, 0.06629743f, -0.03058797f, 0.02665842f, 0.03739436f, 0.12509745f, 0.16693941f, 0.00872400f, -0.01575518f, -0.03501718f, 0.02025075f, -0.12525907f, -0.14065182f, 0.00845575f, 0.02664923f, 0.05265154f, -0.03599305f, 0.08326191f, 0.13490096f, 0.00425845f, 0.01980028f, -0.02620385f, -0.03538972f, -0.06384747f, -0.15209563f, -0.07224584f, 0.00871585f},
